svm_type c_svc
kernel_type rbf
gamma 0.015625
nr_class 2
total_sv 87
rho 0.0715815
label 2 1
nr_sv 43 44
SV
0.125 1:0.791667 2:0.7 3:0.584906 4:0.773585 5:0.630435 6:0.202703 7:0.645161 8:0.4 9:0.162791 10:0.52 11:0.365079 12:0.147727 13:0.558824 14:0.35 15:0.40678 16:0.728814 17:0.266667 18:0.137931 19:1 20:0.342105 21:0.575758 22:0.413793 23:0.112676 24:0.152174 25:1 26:0.571429 27:0.695652 28:0.634615 29:0.796296 30:0.304878 31:0.943662 32:0.372549 33:0.65625 34:0.560976 35:0.619048 36:0.5 37:0.608696 38:0.591837 39:0.545455 40:0.542373 41:0.46875 42:0.218182 43:0.511111 44:0.157895 45:0.0566038 46:0.416667 47:0.52 48:0.234043 49:0.62069 50:0.276596 51:0.343284 52:0.708333 53:0.310345 54:0.113636 55:0.629032 56:0.552632 57:0.55102 58:0.684211 59:0.230769 60:0.214286 61:0.482143 62:0.703704 63:0.422222 64:0.540541 65:0.48 66:0.538462 67:0.10989 68:0.170455 69:0.271605 70:0.258824 71:0.377049 72:0.328358 73:0.290909 74:0.441558 75:0.466667 76:0.460317 77:0.534247 78:0.276596 79:0.488889 80:0.3125 81:0.0806452 82:0.435484 83:0.688525 84:0.294118 85:0.716981 86:0.690476 87:0.254237 88:0.82 89:0.45098 90:0.161765 91:0.824561 92:0.55 93:0.571429 94:0.625 95:0.210526 96:0.0277778 97:0.928571 98:0.564103 99:0.378378 100:0.407407 101:0.372093 102:0.160714 103:0.188889 104:0.0597015 105:0.111111 106:0.294118 108:0.104478 109:0.267857 110:0.928571 111:0.634615 112:0.586957 113:0.5 114:0.605634 115:0.358974 116:0.56 117:0.27027 118:0.5 119:0.365079 120:0.347826 121:0.0833333 122:0.706897 123:0.433962 124:0.690909 125:0.451613 126:0.228571 127:0.517241 128:1 129:0.914286 130:0.558824 131:0.264151 132:0.241379 133:0.836066 134:0.913793 135:0.942857 136:0.58 137:0.738095 138:0.62069 139:0.161765 140:0.788462 141:0.65 142:0.617647 143:0.230769 144:0.880952 145:0.255556 146:0.822222 147:0.560976 148:0.651163 149:0.611111 150:0.206349 151:0.449438 152:0.6875 153:0.5 154:0.6 155:0.403846 156:0.195122 157:0.239583 158:0.152542 159:0.59322 160:0.71875 161:0.513514 162:0.206897 163:0.561224 164:0.464286 165:0.25641 166:0.290323 167:0.16 168:0.147368 169:0.0408163 170:0.679245 171:0.916667 172:0.567568 173:0.215686 174:0.145455 176:1 177:0.789474 178:0.77551 179:0.857143 180:0.577778 181:0.291667 182:0.423077 183:0.388889 184:0.428571 185:0.428571 186:0.15 187:0.75 188:0.490196 189:0.136364 190:0.509804 191:0.571429 192:0.206349 193:0.54717 194:0.134615 195:0.25 196:0.807018 197:0.217391 198:0.177778 199:0.627451 200:0.27907 201:0.288462 202:0.424242 203:0.222222 204:0.0444444 205:0.333333 206:0.613636 207:0.422222 208:0.28 209:0.133333 210:0.122449 211:0.574074 212:0.571429 213:0.381579 214:0.342466 215:0.0597015 216:0.362319 217:0.208333 218:0.130435 219:0.2 220:0.301205 221:0.43956 222:0.309278 223:0.729167 224:0.545455 225:0.0425532 226:0.44 227:0.909091 228:0.52381 229:0.271186 230:0.442623 231:0.360656 232:0.690909 233:0.489362 234:0.108696 235:0.672414 236:0.510204 237:0.377358 238:0.724138 239:0.235294 240:0.075 241:0.682927 242:0.38 243:0.45098 244:0.4 245:0.617021 246:0.326087 247:0.792208 248:0.56338 249:0.445783 250:0.306667 251:0.148649 252:0.349206 253:0.6 254:0.7 255:0.630435 256:0.632653 257:0.686275 258:0.216667 259:0.477273 260:0.76087 261:0.326087 262:0.604651 263:0.671642 264:0.367647 265:0.121622 266:0.375 267:0.676923 268:0.886792 269:0.553571 270:0.320988 271:0.354839 272:0.918919 273:0.324324 274:0.441176 275:0.164179 276:0.0491803 277:0.609375 278:0.333333 279:0.913043 280:0.606061 281:0.0526316 282:0.0689655 283:0.657143 284:0.150943 285:0.753623 286:1 287:0.853659 288:0.444444 
0.125 1:0.666667 2:1 3:1 4:1 5:1 6:0.378378 7:0.596774 8:0.533333 9:0.534884 10:0.78 11:0.571429 12:0.272727 13:0.308824 14:0.35 15:0.694915 16:0.966102 17:0.422222 18:0.344828 19:0.88 20:0.973684 21:0.787879 22:1 23:0.478873 24:0.315217 25:0.512195 26:0.571429 27:1 28:1 29:0.925926 30:0.292683 31:0.760563 32:0.745098 33:0.828125 34:0.829268 35:1 36:0.594595 37:0.630435 38:1 39:0.836364 40:0.983051 41:0.859375 42:0.490909 43:0.533333 44:0.5 45:0.377358 46:0.7 47:1 48:0.702128 49:0.793103 50:0.574468 51:0.462687 52:0.895833 53:0.603448 54:0.863636 55:0.83871 56:0.710526 57:0.836735 58:1 59:0.871795 60:0.857143 61:0.642857 62:0.777778 63:0.888889 64:1 65:1 66:0.897436 67:0.714286 68:0.511364 69:0.37037 70:0.376471 71:0.42623 72:0.283582 73:0.327273 74:0.61039 75:0.833333 76:0.746032 77:0.712329 78:0.414894 79:0.288889 80:0.229167 81:0.370968 82:0.451613 83:0.754098 84:0.514706 85:0.528302 86:0.97619 87:0.423729 88:0.72 89:0.627451 90:0.544118 91:0.596491 92:0.475 93:0.612245 94:0.9375 95:0.947368 96:0.805556 97:0.52381 98:0.74359 99:0.810811 100:1 101:1 102:0.678571 103:0.244444 104:0.671642 105:0.333333 106:0.352941 107:0.142857 108:0.38806 109:0.553571 110:1 111:1 112:1 113:1 114:0.84507 115:0.692308 116:0.6 117:0.594595 118:0.717391 119:0.492063 120:0.536232 121:0.283333 122:0.603448 123:0.679245 124:0.890909 125:0.693548 126:0.333333 127:0.37931 128:0.811321 129:0.885714 130:1 131:0.603774 132:0.425287 133:0.47541 134:0.37931 135:0.857143 136:1 137:0.809524 138:0.534483 139:0.529412 140:0.653846 141:0.675 142:0.941176 143:0.74359 144:0.5 145:0.622222 146:1 147:1 148:0.953488 149:1 150:0.396825 151:0.662921 152:0.833333 153:0.704545 154:0.9 155:0.942308 156:0.487805 157:0.28125 158:0.101695 159:0.677966 160:0.890625 161:0.648649 162:0.482759 163:0.55102 164:0.678571 165:0.564103 166:1 167:0.66 168:0.389474 169:0.438776 170:1 171:0.833333 172:0.945946 173:1 174:0.563636 175:0.543689 176:1 177:0.824561 178:1 179:0.952381 180:1 181:0.819444 182:0.673077 183:0.722222 184:0.6 185:0.558442 186:0.35 187:0.604167 188:0.627451 189:0.454545 190:0.568627 191:0.714286 192:0.571429 193:0.622642 194:0.576923 195:0.46875 196:0.929825 197:0.695652 198:0.955556 199:0.843137 200:0.604651 201:0.653846 202:1 203:0.916667 204:0.688889 205:0.555556 206:0.954545 207:0.644444 208:0.76 209:0.888889 210:0.653061 211:0.777778 212:0.777778 213:0.526316 214:0.520548 215:0.283582 216:0.347826 217:0.333333 218:0.26087 219:0.346667 220:0.493976 221:0.549451 222:0.360825 223:0.583333 224:0.590909 225:0.446809 226:0.62 227:0.939394 228:0.619048 229:0.389831 230:0.540984 231:0.606557 232:0.854545 233:0.957447 234:0.630435 235:0.568966 236:0.55102 237:0.566038 238:0.862069 239:1 240:0.75 241:0.780488 242:0.62 243:0.627451 244:0.6 245:0.744681 246:0.652174 247:0.584416 248:0.56338 249:0.481928 250:0.4 251:0.22973 252:0.396825 253:0.618182 254:1 255:1 256:1 257:1 258:0.55 259:0.795455 260:0.826087 261:0.521739 262:0.906977 263:0.80597 264:0.529412 265:0.216216 266:0.375 267:0.723077 268:0.924528 269:0.714286 270:0.432099 271:0.451613 272:0.648649 273:0.540541 274:1 275:0.462687 276:0.131148 277:1 278:0.772727 279:0.891304 280:0.818182 281:0.789474 282:0.448276 283:0.9 284:0.830189 285:0.956522 286:0.866667 287:0.829268 288:0.577778 
0.125 1:0.791667 2:0.7 3:0.584906 4:0.773585 5:0.630435 6:0.202703 7:0.645161 8:0.4 9:0.162791 10:0.52 11:0.365079 12:0.147727 13:0.558824 14:0.35 15:0.40678 16:0.728814 17:0.266667 18:0.137931 19:1 20:0.342105 21:0.575758 22:0.413793 23:0.112676 24:0.152174 25:1 26:0.571429 27:0.695652 28:0.634615 29:0.796296 30:0.304878 31:0.943662 32:0.372549 33:0.65625 34:0.560976 35:0.619048 36:0.5 37:0.608696 38:0.591837 39:0.545455 40:0.542373 41:0.46875 42:0.218182 43:0.511111 44:0.157895 45:0.0566038 46:0.416667 47:0.52 48:0.234043 49:0.62069 50:0.276596 51:0.343284 52:0.708333 53:0.310345 54:0.113636 55:0.629032 56:0.552632 57:0.55102 58:0.684211 59:0.230769 60:0.214286 61:0.482143 62:0.703704 63:0.422222 64:0.540541 65:0.48 66:0.538462 67:0.10989 68:0.170455 69:0.271605 70:0.258824 71:0.377049 72:0.328358 73:0.290909 74:0.441558 75:0.466667 76:0.460317 77:0.534247 78:0.276596 79:0.488889 80:0.3125 81:0.0806452 82:0.435484 83:0.688525 84:0.294118 85:0.716981 86:0.690476 87:0.254237 88:0.82 89:0.45098 90:0.161765 91:0.824561 92:0.55 93:0.571429 94:0.625 95:0.210526 96:0.0277778 97:0.928571 98:0.564103 99:0.378378 100:0.407407 101:0.372093 102:0.160714 103:0.188889 104:0.0597015 105:0.111111 106:0.294118 108:0.104478 109:0.267857 110:0.928571 111:0.634615 112:0.586957 113:0.5 114:0.605634 115:0.358974 116:0.56 117:0.27027 118:0.5 119:0.365079 120:0.347826 121:0.0833333 122:0.706897 123:0.433962 124:0.690909 125:0.451613 126:0.228571 127:0.517241 128:1 129:0.914286 130:0.558824 131:0.264151 132:0.241379 133:0.836066 134:0.913793 135:0.942857 136:0.58 137:0.738095 138:0.62069 139:0.161765 140:0.788462 141:0.65 142:0.617647 143:0.230769 144:0.880952 145:0.255556 146:0.822222 147:0.560976 148:0.651163 149:0.611111 150:0.206349 151:0.449438 152:0.6875 153:0.5 154:0.6 155:0.403846 156:0.195122 157:0.239583 158:0.152542 159:0.59322 160:0.71875 161:0.513514 162:0.206897 163:0.561224 164:0.464286 165:0.25641 166:0.290323 167:0.16 168:0.147368 169:0.0408163 170:0.679245 171:0.916667 172:0.567568 173:0.215686 174:0.145455 176:1 177:0.789474 178:0.77551 179:0.857143 180:0.577778 181:0.291667 182:0.423077 183:0.388889 184:0.428571 185:0.428571 186:0.15 187:0.75 188:0.490196 189:0.136364 190:0.509804 191:0.571429 192:0.206349 193:0.54717 194:0.134615 195:0.25 196:0.807018 197:0.217391 198:0.177778 199:0.627451 200:0.27907 201:0.288462 202:0.424242 203:0.222222 204:0.0444444 205:0.333333 206:0.613636 207:0.422222 208:0.28 209:0.133333 210:0.122449 211:0.574074 212:0.571429 213:0.381579 214:0.342466 215:0.0597015 216:0.362319 217:0.208333 218:0.130435 219:0.2 220:0.301205 221:0.43956 222:0.309278 223:0.729167 224:0.545455 225:0.0425532 226:0.44 227:0.909091 228:0.52381 229:0.271186 230:0.442623 231:0.360656 232:0.690909 233:0.489362 234:0.108696 235:0.672414 236:0.510204 237:0.377358 238:0.724138 239:0.235294 240:0.075 241:0.682927 242:0.38 243:0.45098 244:0.4 245:0.617021 246:0.326087 247:0.792208 248:0.56338 249:0.445783 250:0.306667 251:0.148649 252:0.349206 253:0.6 254:0.7 255:0.630435 256:0.632653 257:0.686275 258:0.216667 259:0.477273 260:0.76087 261:0.326087 262:0.604651 263:0.671642 264:0.367647 265:0.121622 266:0.375 267:0.676923 268:0.886792 269:0.553571 270:0.320988 271:0.354839 272:0.918919 273:0.324324 274:0.441176 275:0.164179 276:0.0491803 277:0.609375 278:0.333333 279:0.913043 280:0.606061 281:0.0526316 282:0.0689655 283:0.657143 284:0.150943 285:0.753623 286:1 287:0.853659 288:0.444444 
0.125 1:0.0416667 2:0.2 3:0.358491 4:0.339623 5:0.326087 6:0.783784 7:0.177419 8:0.555556 9:0.488372 10:0.56 11:0.333333 12:0.443182 13:0.0735294 14:0.233333 15:0.254237 16:0.474576 17:0.144444 18:0.045977 19:0.32 20:0.0789474 21:0.212121 22:0.206897 23:0.140845 24:0.076087 25:0.304878 26:0.206349 28:0.288462 29:0.351852 31:0.366197 35:0.357143 36:0.0405405 37:0.195652 38:0.489796 39:0.545455 40:0.440678 41:0.375 42:0.2 43:0.0666667 44:0.473684 45:0.301887 46:0.533333 47:0.5 49:0.224138 50:0.382979 51:0.253731 52:0.5 53:0.206897 55:0.145161 56:0.0526316 57:0.44898 58:0.605263 59:0.410256 61:0.214286 62:0.259259 63:0.422222 64:0.27027 65:0.36 67:0.142857 70:0.152941 71:0.327869 72:0.179104 73:0.254545 74:0.428571 75:0.466667 76:0.507937 77:0.465753 78:0.287234 79:0.0444444 80:0.3125 81:0.370968 82:0.612903 83:0.52459 85:0.283019 86:0.380952 87:0.305085 88:0.64 89:0.392157 90:0.0588235 91:0.491228 92:0.475 93:0.489796 94:0.6875 95:0.394737 97:0.404762 98:0.512821 99:0.567568 100:0.407407 101:0.302326 103:0.1 105:0.111111 106:0.779412 107:0.982143 108:1 109:0.321429 110:0.5 111:0.288462 112:0.369565 113:0.307692 114:0.352113 115:0.358974 116:0.62 117:0.648649 118:0.630435 119:0.333333 120:0.275362 121:0.283333 122:0.672414 123:0.396226 124:0.472727 125:0.33871 126:0.342857 127:0.5 128:0.603774 129:0.485714 130:0.382353 131:0.339623 132:0.356322 133:0.360656 134:0.362069 135:0.314286 136:0.68 137:0.428571 138:0.275862 139:0.102941 142:1 143:0.564103 144:0.0952381 145:0.0444444 146:0.244444 147:0.0731707 148:0.0465116 149:0.166667 150:0.238095 152:0.541667 153:0.590909 154:0.6 155:0.384615 156:0.414634 158:0.389831 159:0.423729 160:0.46875 161:0.324324 162:0.505747 163:0.0510204 164:0.464286 165:0.102564 166:0.419355 167:0.32 168:0.484211 169:0.142857 172:0.378378 173:0.490196 174:0.363636 175:0.359223 178:0.612245 179:0.547619 180:0.288889 181:1 182:0.961538 183:0.5 184:0.457143 185:0.38961 186:0.1 188:0.27451 189:0.272727 190:0.45098 191:0.47619 193:0.113208 194:0.461538 195:0.265625 196:0.578947 197:0.130435 198:0.133333 200:0.0930233 201:0.230769 202:0.424242 203:0.277778 208:0.24 209:0.444444 210:0.122449 212:0.0634921 214:0.356164 215:0.402985 216:0.217391 217:0.444444 218:0.710145 219:0.693333 220:0.674699 221:0.527473 222:0.206186 224:0.272727 225:0.212766 226:0.42 227:0.621212 228:0.380952 229:0.0169492 230:0.409836 231:0.344262 232:0.436364 233:0.212766 236:0.367347 237:0.339623 238:0.62069 239:0.470588 245:0.446809 247:0.155844 248:0.0704225 250:0.04 251:0.256757 252:0.031746 254:0.05 255:0.304348 256:0.0816327 257:0.647059 258:0.45 260:0.586957 261:0.5 262:0.651163 263:0.597015 264:0.426471 265:0.0675676 266:0.214286 267:0.461538 268:0.792453 269:0.428571 270:0.222222 271:0.0322581 273:0.162162 274:0.5 275:0.313433 277:0.03125 280:0.212121 281:0.157895 282:0.137931 283:0.342857 286:0.311111 287:0.463415 
0.125 1:0.666667 2:1 3:1 4:1 5:1 6:0.378378 7:0.596774 8:0.533333 9:0.534884 10:0.78 11:0.571429 12:0.272727 13:0.308824 14:0.35 15:0.694915 16:0.966102 17:0.422222 18:0.344828 19:0.88 20:0.973684 21:0.787879 22:1 23:0.478873 24:0.315217 25:0.512195 26:0.571429 27:1 28:1 29:0.925926 30:0.292683 31:0.760563 32:0.745098 33:0.828125 34:0.829268 35:1 36:0.594595 37:0.630435 38:1 39:0.836364 40:0.983051 41:0.859375 42:0.490909 43:0.533333 44:0.5 45:0.377358 46:0.7 47:1 48:0.702128 49:0.793103 50:0.574468 51:0.462687 52:0.895833 53:0.603448 54:0.863636 55:0.83871 56:0.710526 57:0.836735 58:1 59:0.871795 60:0.857143 61:0.642857 62:0.777778 63:0.888889 64:1 65:1 66:0.897436 67:0.714286 68:0.511364 69:0.37037 70:0.376471 71:0.42623 72:0.283582 73:0.327273 74:0.61039 75:0.833333 76:0.746032 77:0.712329 78:0.414894 79:0.288889 80:0.229167 81:0.370968 82:0.451613 83:0.754098 84:0.514706 85:0.528302 86:0.97619 87:0.423729 88:0.72 89:0.627451 90:0.544118 91:0.596491 92:0.475 93:0.612245 94:0.9375 95:0.947368 96:0.805556 97:0.52381 98:0.74359 99:0.810811 100:1 101:1 102:0.678571 103:0.244444 104:0.671642 105:0.333333 106:0.352941 107:0.142857 108:0.38806 109:0.553571 110:1 111:1 112:1 113:1 114:0.84507 115:0.692308 116:0.6 117:0.594595 118:0.717391 119:0.492063 120:0.536232 121:0.283333 122:0.603448 123:0.679245 124:0.890909 125:0.693548 126:0.333333 127:0.37931 128:0.811321 129:0.885714 130:1 131:0.603774 132:0.425287 133:0.47541 134:0.37931 135:0.857143 136:1 137:0.809524 138:0.534483 139:0.529412 140:0.653846 141:0.675 142:0.941176 143:0.74359 144:0.5 145:0.622222 146:1 147:1 148:0.953488 149:1 150:0.396825 151:0.662921 152:0.833333 153:0.704545 154:0.9 155:0.942308 156:0.487805 157:0.28125 158:0.101695 159:0.677966 160:0.890625 161:0.648649 162:0.482759 163:0.55102 164:0.678571 165:0.564103 166:1 167:0.66 168:0.389474 169:0.438776 170:1 171:0.833333 172:0.945946 173:1 174:0.563636 175:0.543689 176:1 177:0.824561 178:1 179:0.952381 180:1 181:0.819444 182:0.673077 183:0.722222 184:0.6 185:0.558442 186:0.35 187:0.604167 188:0.627451 189:0.454545 190:0.568627 191:0.714286 192:0.571429 193:0.622642 194:0.576923 195:0.46875 196:0.929825 197:0.695652 198:0.955556 199:0.843137 200:0.604651 201:0.653846 202:1 203:0.916667 204:0.688889 205:0.555556 206:0.954545 207:0.644444 208:0.76 209:0.888889 210:0.653061 211:0.777778 212:0.777778 213:0.526316 214:0.520548 215:0.283582 216:0.347826 217:0.333333 218:0.26087 219:0.346667 220:0.493976 221:0.549451 222:0.360825 223:0.583333 224:0.590909 225:0.446809 226:0.62 227:0.939394 228:0.619048 229:0.389831 230:0.540984 231:0.606557 232:0.854545 233:0.957447 234:0.630435 235:0.568966 236:0.55102 237:0.566038 238:0.862069 239:1 240:0.75 241:0.780488 242:0.62 243:0.627451 244:0.6 245:0.744681 246:0.652174 247:0.584416 248:0.56338 249:0.481928 250:0.4 251:0.22973 252:0.396825 253:0.618182 254:1 255:1 256:1 257:1 258:0.55 259:0.795455 260:0.826087 261:0.521739 262:0.906977 263:0.80597 264:0.529412 265:0.216216 266:0.375 267:0.723077 268:0.924528 269:0.714286 270:0.432099 271:0.451613 272:0.648649 273:0.540541 274:1 275:0.462687 276:0.131148 277:1 278:0.772727 279:0.891304 280:0.818182 281:0.789474 282:0.448276 283:0.9 284:0.830189 285:0.956522 286:0.866667 287:0.829268 288:0.577778 
0.125 1:0.604167 2:0.825 3:0.811321 4:0.754717 5:0.695652 6:0.405405 7:0.580645 8:0.688889 9:0.325581 10:0.54 11:0.555556 12:0.386364 13:0.485294 14:0.4 15:0.457627 16:0.745763 17:0.344444 18:0.402299 19:0.573333 20:0.631579 21:1 22:0.896552 23:0.43662 24:0.402174 25:0.670732 26:0.619048 27:0.913043 28:0.807692 29:0.796296 30:0.292683 31:0.830986 32:0.431373 33:0.8125 34:0.780488 35:0.714286 36:0.378378 37:0.478261 38:0.591837 39:0.563636 40:0.745763 41:0.578125 42:0.290909 43:0.555556 44:0.315789 45:0.188679 46:0.5 47:0.76 48:0.595745 49:0.741379 50:0.617021 51:0.41791 52:0.8125 53:0.551724 54:0.772727 55:0.532258 56:0.5 57:0.734694 58:0.868421 59:1 60:0.857143 61:0.892857 62:1 63:0.733333 64:0.810811 65:0.7 66:0.666667 67:0.274725 68:0.261364 69:0.419753 70:0.541176 71:0.590164 72:0.61194 73:0.2 74:0.467532 75:0.533333 76:0.507937 77:0.534247 78:0.276596 79:0.488889 80:0.4375 81:0.241935 82:0.419355 83:0.655738 84:0.352941 85:0.433962 86:0.571429 87:0.338983 88:0.8 89:0.588235 90:0.470588 91:0.385965 92:0.125 93:0.612245 94:1 95:0.815789 96:0.722222 97:0.690476 98:0.74359 99:0.405405 100:0.703704 101:0.511628 102:0.428571 103:0.177778 104:0.208955 105:0.111111 106:0.5 107:0.25 108:0.38806 109:0.428571 110:0.857143 111:0.788462 112:0.630435 113:0.711538 114:0.647887 115:0.512821 116:0.62 117:0.675676 118:0.543478 119:0.460317 120:0.42029 121:0.3 122:0.810345 123:0.660377 124:0.745455 125:0.564516 126:0.266667 127:0.396552 128:0.811321 129:0.885714 130:0.794118 131:0.716981 132:0.344828 133:0.704918 134:1 135:1 136:0.72 137:0.928571 138:0.706897 139:0.573529 140:0.942308 141:0.9 142:0.823529 143:0.333333 144:0.714286 145:0.511111 146:0.933333 147:0.756098 148:0.674419 149:0.740741 150:0.269841 151:0.629213 152:0.791667 153:0.659091 154:0.625 155:0.557692 156:0.317073 157:0.375 158:0.0847458 159:0.474576 160:0.6875 161:0.513514 162:0.344828 163:0.418367 164:0.660714 165:0.435897 166:0.516129 167:0.42 168:0.263158 169:0.469388 170:0.641509 171:0.895833 172:1 173:0.607843 174:0.381818 175:0.621359 176:0.875 177:0.719298 178:0.877551 179:0.880952 180:0.755556 181:0.25 182:0.480769 183:0.555556 184:0.557143 185:0.532468 186:0.283333 187:0.791667 188:0.705882 189:0.386364 190:0.568627 191:0.761905 192:0.507937 193:0.358491 194:0.384615 195:0.390625 196:0.789474 197:0.434783 198:0.711111 199:0.901961 200:0.883721 201:0.5 202:0.818182 203:0.833333 204:0.577778 205:0.518519 206:0.659091 207:0.577778 208:1 209:0.955556 210:0.591837 211:0.722222 212:0.825397 213:0.486842 214:0.520548 215:0.238806 216:0.275362 217:0.208333 218:0.188406 219:0.306667 220:0.421687 221:0.472527 222:0.28866 223:0.791667 224:0.681818 225:0.297872 226:0.6 227:0.848485 228:0.52381 229:0.186441 230:0.262295 231:0.442623 232:0.727273 233:0.680851 234:0.521739 235:0.413793 236:0.530612 237:0.528302 238:0.931034 239:0.588235 240:0.625 241:0.317073 242:0.56 243:0.666667 244:0.72 245:0.680851 246:0.630435 247:0.662338 248:0.647887 249:0.445783 250:0.28 251:0.162162 252:0.349206 253:0.672727 254:0.9 255:0.695652 256:0.632653 257:0.882353 258:0.5 259:0.590909 260:0.869565 261:0.478261 262:0.651163 263:0.731343 264:0.588235 265:0.027027 266:0.285714 267:0.646154 268:0.830189 269:0.571429 270:0.567901 271:0.854839 272:0.567568 273:0.351351 274:0.558824 275:0.373134 276:0.360656 277:0.8125 278:0.545455 279:0.956522 280:1 281:0.684211 282:0.482759 283:1 284:0.433962 285:0.768116 286:0.888889 287:0.804878 288:0.577778 
0.125 1:0.583333 2:0.75 3:0.754717 4:0.792453 5:0.73913 6:0.378378 7:0.532258 8:0.666667 9:0.395349 10:0.64 11:0.507937 12:0.352273 13:0.455882 14:0.366667 15:0.40678 16:0.728814 17:0.377778 18:0.402299 19:0.613333 20:0.578947 21:0.757576 22:0.758621 23:0.408451 24:0.423913 25:0.682927 26:0.619048 27:0.891304 28:0.903846 29:0.814815 30:0.317073 31:0.915493 32:0.45098 33:0.65625 34:0.731707 35:0.809524 36:0.378378 37:0.5 38:0.673469 39:0.6 40:0.661017 41:0.59375 42:0.381818 43:0.444444 44:0.368421 45:0.264151 46:0.516667 47:0.78 48:0.702128 49:0.741379 50:0.574468 51:0.373134 52:0.708333 53:0.551724 54:0.909091 55:0.548387 56:0.552632 57:0.673469 58:0.894737 59:0.948718 60:0.928571 61:0.875 62:1 63:0.733333 64:0.864865 65:0.82 66:0.794872 67:0.296703 68:0.261364 69:0.333333 70:0.329412 71:0.344262 72:0.328358 73:0.272727 74:0.467532 75:0.616667 76:0.492063 77:0.547945 78:0.361702 79:0.466667 80:0.333333 81:0.322581 82:0.516129 83:0.672131 84:0.470588 85:0.45283 86:0.595238 87:0.288136 88:0.8 89:0.568627 90:0.558824 91:0.508772 92:0.325 93:0.428571 94:1 95:0.894737 96:0.777778 97:0.761905 98:0.717949 99:0.378378 100:0.666667 101:0.627907 102:0.517857 103:0.222222 104:0.223881 105:0.0185185 106:0.367647 107:0.0714286 108:0.268657 109:0.357143 110:0.833333 111:0.711538 112:0.76087 113:0.692308 114:0.56338 115:0.512821 116:0.64 117:0.702703 118:0.630435 119:0.460317 120:0.42029 121:0.266667 122:0.758621 123:0.622642 124:0.745455 125:0.596774 126:0.314286 127:0.431034 128:0.90566 129:0.828571 130:0.764706 131:0.698113 132:0.413793 133:0.770492 134:1 135:1 136:0.78 137:1 138:0.706897 139:0.514706 140:1 141:0.75 142:0.705882 143:0.512821 144:0.785714 145:0.366667 146:0.955556 147:0.804878 148:0.906977 149:0.833333 150:0.412698 151:0.438202 152:0.75 153:0.704545 154:0.75 155:0.615385 156:0.402439 157:0.25 158:0.0677966 159:0.542373 160:0.75 161:0.594595 162:0.402299 163:0.285714 164:0.482143 165:0.410256 166:0.516129 167:0.3 168:0.294737 169:0.306122 170:0.528302 171:0.75 172:0.810811 173:0.647059 174:0.363636 175:0.572816 176:0.821429 177:0.789474 178:0.938776 179:0.928571 180:0.8 181:0.444444 182:0.538462 183:0.5 184:0.457143 185:0.532468 186:0.4 187:0.541667 188:0.568627 189:0.431818 190:0.54902 191:0.793651 192:0.555556 193:0.396226 194:0.403846 195:0.359375 196:0.789474 197:0.652174 198:0.933333 199:0.941176 200:0.906977 201:0.442308 202:0.909091 203:0.916667 204:0.6 205:0.537037 206:0.681818 207:0.444444 208:0.64 209:1 210:0.653061 211:0.611111 212:0.730159 213:0.394737 214:0.438356 215:0.283582 216:0.362319 217:0.458333 218:0.347826 219:0.36 220:0.433735 221:0.450549 222:0.28866 223:0.9375 224:0.772727 225:0.404255 226:0.54 227:0.787879 228:0.603175 229:0.322034 230:0.344262 231:0.491803 232:0.8 233:0.765957 234:0.652174 235:0.5 236:0.571429 237:0.490566 238:1 239:0.676471 240:0.725 241:0.414634 242:0.58 243:0.490196 244:0.52 245:0.702128 246:0.717391 247:0.688312 248:0.633803 249:0.433735 250:0.386667 251:0.243243 252:0.333333 253:0.690909 254:0.9 255:0.869565 256:0.836735 257:0.980392 258:0.516667 259:0.522727 260:0.934783 261:0.521739 262:0.72093 263:0.80597 264:0.602941 266:0.339286 267:0.723077 268:0.924528 269:0.642857 270:0.555556 271:0.806452 272:0.540541 273:0.297297 274:0.647059 275:0.298507 276:0.442623 277:0.734375 278:0.5 279:0.73913 280:0.909091 281:0.684211 282:0.586207 283:0.9 284:0.377358 285:0.826087 286:0.955556 287:0.853659 288:0.755556 
0.125 1:0.5625 2:0.65 3:0.641509 4:0.716981 5:0.695652 6:0.297297 7:0.516129 8:0.466667 9:0.325581 10:0.52 11:0.428571 12:0.340909 13:0.470588 14:0.3 15:0.389831 16:0.644068 17:0.255556 18:0.356322 19:0.613333 20:0.578947 21:0.636364 22:0.655172 23:0.394366 24:0.326087 25:0.670732 26:0.539683 27:0.630435 28:0.75 29:0.703704 30:0.243902 31:0.887324 32:0.313725 33:0.59375 34:0.682927 35:0.666667 36:0.297297 37:0.543478 38:0.612245 39:0.636364 40:0.745763 41:0.609375 42:0.381818 43:0.577778 44:0.394737 45:0.301887 46:0.466667 47:0.58 48:0.468085 49:0.741379 50:0.659574 51:0.402985 52:0.708333 53:0.431034 54:0.772727 55:0.564516 56:0.578947 57:0.693878 58:0.947368 59:0.871795 60:0.857143 61:0.875 62:1 63:0.555556 64:0.837838 65:0.72 66:0.692308 67:0.285714 68:0.227273 69:0.37037 70:0.458824 71:0.42623 72:0.432836 73:0.236364 74:0.506494 75:0.616667 76:0.52381 77:0.616438 78:0.37234 79:0.466667 80:0.375 81:0.354839 82:0.451613 83:0.639344 84:0.308824 85:0.396226 86:0.666667 87:0.322034 88:0.76 89:0.588235 90:0.382353 91:0.438596 92:0.375 93:0.489796 94:1 95:0.842105 96:0.527778 97:0.857143 98:0.846154 99:0.378378 100:0.592593 101:0.534884 102:0.392857 103:0.244444 104:0.253731 105:0.166667 106:0.455882 107:0.0714286 108:0.268657 109:0.357143 110:0.714286 111:0.596154 112:0.543478 113:0.519231 114:0.507042 115:0.487179 116:0.56 117:0.567568 118:0.543478 119:0.31746 120:0.275362 121:0.0666667 122:0.672414 123:0.490566 124:0.690909 125:0.387097 126:0.142857 127:0.344828 128:0.90566 129:0.657143 130:0.588235 131:0.528302 132:0.287356 133:0.622951 134:0.965517 135:0.828571 136:0.56 137:0.666667 138:0.62069 139:0.205882 140:0.788462 141:0.85 142:0.705882 143:0.230769 144:0.595238 145:0.222222 146:0.777778 147:0.658537 148:0.581395 149:0.666667 150:0.142857 151:0.382022 152:0.666667 153:0.613636 154:0.575 155:0.576923 156:0.207317 157:0.125 158:0.118644 159:0.525424 160:0.640625 161:0.486486 162:0.206897 163:0.112245 164:0.535714 165:0.179487 166:0.387097 167:0.22 168:0.136842 169:0.0714286 170:0.358491 171:0.583333 172:0.837838 173:0.568627 174:0.236364 175:0.359223 176:0.535714 177:0.666667 178:0.795918 179:0.738095 180:0.466667 181:0.319444 182:0.519231 183:0.444444 184:0.428571 185:0.415584 186:0.316667 187:0.708333 188:0.705882 189:0.568182 190:0.588235 191:0.68254 192:0.396825 193:0.433962 194:0.442308 195:0.359375 196:0.77193 197:0.478261 198:0.622222 199:0.921569 200:0.976744 201:0.423077 202:0.787879 203:0.694444 204:0.4 205:0.462963 206:0.613636 207:0.488889 208:0.72 209:0.688889 210:0.510204 211:0.648148 212:0.730159 213:0.342105 214:0.369863 215:0.0746269 216:0.246377 217:0.333333 218:0.202899 219:0.24 220:0.385542 221:0.461538 222:0.391753 223:0.8125 224:0.727273 225:0.468085 226:0.6 227:0.833333 228:0.571429 229:0.186441 230:0.311475 231:0.491803 232:0.709091 233:0.617021 234:0.456522 235:0.431034 236:0.591837 237:0.433962 238:0.896552 239:0.588235 240:0.5 241:0.365854 242:0.52 243:0.490196 244:0.6 245:0.744681 246:0.565217 247:0.571429 248:0.507042 249:0.325301 250:0.253333 251:0.162162 252:0.31746 253:0.636364 254:0.75 255:0.652174 256:0.653061 257:0.686275 258:0.366667 259:0.613636 260:0.869565 261:0.543478 262:0.697674 263:0.716418 264:0.544118 265:0.027027 266:0.214286 267:0.692308 268:0.886792 269:0.589286 270:0.493827 271:0.790323 272:0.432432 273:0.135135 274:0.529412 275:0.253731 276:0.262295 277:0.65625 278:0.393939 279:0.630435 280:0.909091 281:0.578947 282:0.396552 283:0.814286 284:0.245283 285:0.550725 286:0.8 287:0.609756 288:0.511111 
0.125 1:0.791667 2:0.7 3:0.584906 4:0.773585 5:0.630435 6:0.202703 7:0.645161 8:0.4 9:0.162791 10:0.52 11:0.365079 12:0.147727 13:0.558824 14:0.35 15:0.40678 16:0.728814 17:0.266667 18:0.137931 19:1 20:0.342105 21:0.575758 22:0.413793 23:0.112676 24:0.152174 25:1 26:0.571429 27:0.695652 28:0.634615 29:0.796296 30:0.304878 31:0.943662 32:0.372549 33:0.65625 34:0.560976 35:0.619048 36:0.5 37:0.608696 38:0.591837 39:0.545455 40:0.542373 41:0.46875 42:0.218182 43:0.511111 44:0.157895 45:0.0566038 46:0.416667 47:0.52 48:0.234043 49:0.62069 50:0.276596 51:0.343284 52:0.708333 53:0.310345 54:0.113636 55:0.629032 56:0.552632 57:0.55102 58:0.684211 59:0.230769 60:0.214286 61:0.482143 62:0.703704 63:0.422222 64:0.540541 65:0.48 66:0.538462 67:0.10989 68:0.170455 69:0.271605 70:0.258824 71:0.377049 72:0.328358 73:0.290909 74:0.441558 75:0.466667 76:0.460317 77:0.534247 78:0.276596 79:0.488889 80:0.3125 81:0.0806452 82:0.435484 83:0.688525 84:0.294118 85:0.716981 86:0.690476 87:0.254237 88:0.82 89:0.45098 90:0.161765 91:0.824561 92:0.55 93:0.571429 94:0.625 95:0.210526 96:0.0277778 97:0.928571 98:0.564103 99:0.378378 100:0.407407 101:0.372093 102:0.160714 103:0.188889 104:0.0597015 105:0.111111 106:0.294118 108:0.104478 109:0.267857 110:0.928571 111:0.634615 112:0.586957 113:0.5 114:0.605634 115:0.358974 116:0.56 117:0.27027 118:0.5 119:0.365079 120:0.347826 121:0.0833333 122:0.706897 123:0.433962 124:0.690909 125:0.451613 126:0.228571 127:0.517241 128:1 129:0.914286 130:0.558824 131:0.264151 132:0.241379 133:0.836066 134:0.913793 135:0.942857 136:0.58 137:0.738095 138:0.62069 139:0.161765 140:0.788462 141:0.65 142:0.617647 143:0.230769 144:0.880952 145:0.255556 146:0.822222 147:0.560976 148:0.651163 149:0.611111 150:0.206349 151:0.449438 152:0.6875 153:0.5 154:0.6 155:0.403846 156:0.195122 157:0.239583 158:0.152542 159:0.59322 160:0.71875 161:0.513514 162:0.206897 163:0.561224 164:0.464286 165:0.25641 166:0.290323 167:0.16 168:0.147368 169:0.0408163 170:0.679245 171:0.916667 172:0.567568 173:0.215686 174:0.145455 176:1 177:0.789474 178:0.77551 179:0.857143 180:0.577778 181:0.291667 182:0.423077 183:0.388889 184:0.428571 185:0.428571 186:0.15 187:0.75 188:0.490196 189:0.136364 190:0.509804 191:0.571429 192:0.206349 193:0.54717 194:0.134615 195:0.25 196:0.807018 197:0.217391 198:0.177778 199:0.627451 200:0.27907 201:0.288462 202:0.424242 203:0.222222 204:0.0444444 205:0.333333 206:0.613636 207:0.422222 208:0.28 209:0.133333 210:0.122449 211:0.574074 212:0.571429 213:0.381579 214:0.342466 215:0.0597015 216:0.362319 217:0.208333 218:0.130435 219:0.2 220:0.301205 221:0.43956 222:0.309278 223:0.729167 224:0.545455 225:0.0425532 226:0.44 227:0.909091 228:0.52381 229:0.271186 230:0.442623 231:0.360656 232:0.690909 233:0.489362 234:0.108696 235:0.672414 236:0.510204 237:0.377358 238:0.724138 239:0.235294 240:0.075 241:0.682927 242:0.38 243:0.45098 244:0.4 245:0.617021 246:0.326087 247:0.792208 248:0.56338 249:0.445783 250:0.306667 251:0.148649 252:0.349206 253:0.6 254:0.7 255:0.630435 256:0.632653 257:0.686275 258:0.216667 259:0.477273 260:0.76087 261:0.326087 262:0.604651 263:0.671642 264:0.367647 265:0.121622 266:0.375 267:0.676923 268:0.886792 269:0.553571 270:0.320988 271:0.354839 272:0.918919 273:0.324324 274:0.441176 275:0.164179 276:0.0491803 277:0.609375 278:0.333333 279:0.913043 280:0.606061 281:0.0526316 282:0.0689655 283:0.657143 284:0.150943 285:0.753623 286:1 287:0.853659 288:0.444444 
0.125 1:0.666667 2:1 3:1 4:1 5:1 6:0.378378 7:0.596774 8:0.533333 9:0.534884 10:0.78 11:0.571429 12:0.272727 13:0.308824 14:0.35 15:0.694915 16:0.966102 17:0.422222 18:0.344828 19:0.88 20:0.973684 21:0.787879 22:1 23:0.478873 24:0.315217 25:0.512195 26:0.571429 27:1 28:1 29:0.925926 30:0.292683 31:0.760563 32:0.745098 33:0.828125 34:0.829268 35:1 36:0.594595 37:0.630435 38:1 39:0.836364 40:0.983051 41:0.859375 42:0.490909 43:0.533333 44:0.5 45:0.377358 46:0.7 47:1 48:0.702128 49:0.793103 50:0.574468 51:0.462687 52:0.895833 53:0.603448 54:0.863636 55:0.83871 56:0.710526 57:0.836735 58:1 59:0.871795 60:0.857143 61:0.642857 62:0.777778 63:0.888889 64:1 65:1 66:0.897436 67:0.714286 68:0.511364 69:0.37037 70:0.376471 71:0.42623 72:0.283582 73:0.327273 74:0.61039 75:0.833333 76:0.746032 77:0.712329 78:0.414894 79:0.288889 80:0.229167 81:0.370968 82:0.451613 83:0.754098 84:0.514706 85:0.528302 86:0.97619 87:0.423729 88:0.72 89:0.627451 90:0.544118 91:0.596491 92:0.475 93:0.612245 94:0.9375 95:0.947368 96:0.805556 97:0.52381 98:0.74359 99:0.810811 100:1 101:1 102:0.678571 103:0.244444 104:0.671642 105:0.333333 106:0.352941 107:0.142857 108:0.38806 109:0.553571 110:1 111:1 112:1 113:1 114:0.84507 115:0.692308 116:0.6 117:0.594595 118:0.717391 119:0.492063 120:0.536232 121:0.283333 122:0.603448 123:0.679245 124:0.890909 125:0.693548 126:0.333333 127:0.37931 128:0.811321 129:0.885714 130:1 131:0.603774 132:0.425287 133:0.47541 134:0.37931 135:0.857143 136:1 137:0.809524 138:0.534483 139:0.529412 140:0.653846 141:0.675 142:0.941176 143:0.74359 144:0.5 145:0.622222 146:1 147:1 148:0.953488 149:1 150:0.396825 151:0.662921 152:0.833333 153:0.704545 154:0.9 155:0.942308 156:0.487805 157:0.28125 158:0.101695 159:0.677966 160:0.890625 161:0.648649 162:0.482759 163:0.55102 164:0.678571 165:0.564103 166:1 167:0.66 168:0.389474 169:0.438776 170:1 171:0.833333 172:0.945946 173:1 174:0.563636 175:0.543689 176:1 177:0.824561 178:1 179:0.952381 180:1 181:0.819444 182:0.673077 183:0.722222 184:0.6 185:0.558442 186:0.35 187:0.604167 188:0.627451 189:0.454545 190:0.568627 191:0.714286 192:0.571429 193:0.622642 194:0.576923 195:0.46875 196:0.929825 197:0.695652 198:0.955556 199:0.843137 200:0.604651 201:0.653846 202:1 203:0.916667 204:0.688889 205:0.555556 206:0.954545 207:0.644444 208:0.76 209:0.888889 210:0.653061 211:0.777778 212:0.777778 213:0.526316 214:0.520548 215:0.283582 216:0.347826 217:0.333333 218:0.26087 219:0.346667 220:0.493976 221:0.549451 222:0.360825 223:0.583333 224:0.590909 225:0.446809 226:0.62 227:0.939394 228:0.619048 229:0.389831 230:0.540984 231:0.606557 232:0.854545 233:0.957447 234:0.630435 235:0.568966 236:0.55102 237:0.566038 238:0.862069 239:1 240:0.75 241:0.780488 242:0.62 243:0.627451 244:0.6 245:0.744681 246:0.652174 247:0.584416 248:0.56338 249:0.481928 250:0.4 251:0.22973 252:0.396825 253:0.618182 254:1 255:1 256:1 257:1 258:0.55 259:0.795455 260:0.826087 261:0.521739 262:0.906977 263:0.80597 264:0.529412 265:0.216216 266:0.375 267:0.723077 268:0.924528 269:0.714286 270:0.432099 271:0.451613 272:0.648649 273:0.540541 274:1 275:0.462687 276:0.131148 277:1 278:0.772727 279:0.891304 280:0.818182 281:0.789474 282:0.448276 283:0.9 284:0.830189 285:0.956522 286:0.866667 287:0.829268 288:0.577778 
0.125 1:0.666667 2:1 3:1 4:1 5:1 6:0.378378 7:0.596774 8:0.533333 9:0.534884 10:0.78 11:0.571429 12:0.272727 13:0.308824 14:0.35 15:0.694915 16:0.966102 17:0.422222 18:0.344828 19:0.88 20:0.973684 21:0.787879 22:1 23:0.478873 24:0.315217 25:0.512195 26:0.571429 27:1 28:1 29:0.925926 30:0.292683 31:0.760563 32:0.745098 33:0.828125 34:0.829268 35:1 36:0.594595 37:0.630435 38:1 39:0.836364 40:0.983051 41:0.859375 42:0.490909 43:0.533333 44:0.5 45:0.377358 46:0.7 47:1 48:0.702128 49:0.793103 50:0.574468 51:0.462687 52:0.895833 53:0.603448 54:0.863636 55:0.83871 56:0.710526 57:0.836735 58:1 59:0.871795 60:0.857143 61:0.642857 62:0.777778 63:0.888889 64:1 65:1 66:0.897436 67:0.714286 68:0.511364 69:0.37037 70:0.376471 71:0.42623 72:0.283582 73:0.327273 74:0.61039 75:0.833333 76:0.746032 77:0.712329 78:0.414894 79:0.288889 80:0.229167 81:0.370968 82:0.451613 83:0.754098 84:0.514706 85:0.528302 86:0.97619 87:0.423729 88:0.72 89:0.627451 90:0.544118 91:0.596491 92:0.475 93:0.612245 94:0.9375 95:0.947368 96:0.805556 97:0.52381 98:0.74359 99:0.810811 100:1 101:1 102:0.678571 103:0.244444 104:0.671642 105:0.333333 106:0.352941 107:0.142857 108:0.38806 109:0.553571 110:1 111:1 112:1 113:1 114:0.84507 115:0.692308 116:0.6 117:0.594595 118:0.717391 119:0.492063 120:0.536232 121:0.283333 122:0.603448 123:0.679245 124:0.890909 125:0.693548 126:0.333333 127:0.37931 128:0.811321 129:0.885714 130:1 131:0.603774 132:0.425287 133:0.47541 134:0.37931 135:0.857143 136:1 137:0.809524 138:0.534483 139:0.529412 140:0.653846 141:0.675 142:0.941176 143:0.74359 144:0.5 145:0.622222 146:1 147:1 148:0.953488 149:1 150:0.396825 151:0.662921 152:0.833333 153:0.704545 154:0.9 155:0.942308 156:0.487805 157:0.28125 158:0.101695 159:0.677966 160:0.890625 161:0.648649 162:0.482759 163:0.55102 164:0.678571 165:0.564103 166:1 167:0.66 168:0.389474 169:0.438776 170:1 171:0.833333 172:0.945946 173:1 174:0.563636 175:0.543689 176:1 177:0.824561 178:1 179:0.952381 180:1 181:0.819444 182:0.673077 183:0.722222 184:0.6 185:0.558442 186:0.35 187:0.604167 188:0.627451 189:0.454545 190:0.568627 191:0.714286 192:0.571429 193:0.622642 194:0.576923 195:0.46875 196:0.929825 197:0.695652 198:0.955556 199:0.843137 200:0.604651 201:0.653846 202:1 203:0.916667 204:0.688889 205:0.555556 206:0.954545 207:0.644444 208:0.76 209:0.888889 210:0.653061 211:0.777778 212:0.777778 213:0.526316 214:0.520548 215:0.283582 216:0.347826 217:0.333333 218:0.26087 219:0.346667 220:0.493976 221:0.549451 222:0.360825 223:0.583333 224:0.590909 225:0.446809 226:0.62 227:0.939394 228:0.619048 229:0.389831 230:0.540984 231:0.606557 232:0.854545 233:0.957447 234:0.630435 235:0.568966 236:0.55102 237:0.566038 238:0.862069 239:1 240:0.75 241:0.780488 242:0.62 243:0.627451 244:0.6 245:0.744681 246:0.652174 247:0.584416 248:0.56338 249:0.481928 250:0.4 251:0.22973 252:0.396825 253:0.618182 254:1 255:1 256:1 257:1 258:0.55 259:0.795455 260:0.826087 261:0.521739 262:0.906977 263:0.80597 264:0.529412 265:0.216216 266:0.375 267:0.723077 268:0.924528 269:0.714286 270:0.432099 271:0.451613 272:0.648649 273:0.540541 274:1 275:0.462687 276:0.131148 277:1 278:0.772727 279:0.891304 280:0.818182 281:0.789474 282:0.448276 283:0.9 284:0.830189 285:0.956522 286:0.866667 287:0.829268 288:0.577778 
0.125 1:0.666667 2:1 3:1 4:1 5:1 6:0.378378 7:0.596774 8:0.533333 9:0.534884 10:0.78 11:0.571429 12:0.272727 13:0.308824 14:0.35 15:0.694915 16:0.966102 17:0.422222 18:0.344828 19:0.88 20:0.973684 21:0.787879 22:1 23:0.478873 24:0.315217 25:0.512195 26:0.571429 27:1 28:1 29:0.925926 30:0.292683 31:0.760563 32:0.745098 33:0.828125 34:0.829268 35:1 36:0.594595 37:0.630435 38:1 39:0.836364 40:0.983051 41:0.859375 42:0.490909 43:0.533333 44:0.5 45:0.377358 46:0.7 47:1 48:0.702128 49:0.793103 50:0.574468 51:0.462687 52:0.895833 53:0.603448 54:0.863636 55:0.83871 56:0.710526 57:0.836735 58:1 59:0.871795 60:0.857143 61:0.642857 62:0.777778 63:0.888889 64:1 65:1 66:0.897436 67:0.714286 68:0.511364 69:0.37037 70:0.376471 71:0.42623 72:0.283582 73:0.327273 74:0.61039 75:0.833333 76:0.746032 77:0.712329 78:0.414894 79:0.288889 80:0.229167 81:0.370968 82:0.451613 83:0.754098 84:0.514706 85:0.528302 86:0.97619 87:0.423729 88:0.72 89:0.627451 90:0.544118 91:0.596491 92:0.475 93:0.612245 94:0.9375 95:0.947368 96:0.805556 97:0.52381 98:0.74359 99:0.810811 100:1 101:1 102:0.678571 103:0.244444 104:0.671642 105:0.333333 106:0.352941 107:0.142857 108:0.38806 109:0.553571 110:1 111:1 112:1 113:1 114:0.84507 115:0.692308 116:0.6 117:0.594595 118:0.717391 119:0.492063 120:0.536232 121:0.283333 122:0.603448 123:0.679245 124:0.890909 125:0.693548 126:0.333333 127:0.37931 128:0.811321 129:0.885714 130:1 131:0.603774 132:0.425287 133:0.47541 134:0.37931 135:0.857143 136:1 137:0.809524 138:0.534483 139:0.529412 140:0.653846 141:0.675 142:0.941176 143:0.74359 144:0.5 145:0.622222 146:1 147:1 148:0.953488 149:1 150:0.396825 151:0.662921 152:0.833333 153:0.704545 154:0.9 155:0.942308 156:0.487805 157:0.28125 158:0.101695 159:0.677966 160:0.890625 161:0.648649 162:0.482759 163:0.55102 164:0.678571 165:0.564103 166:1 167:0.66 168:0.389474 169:0.438776 170:1 171:0.833333 172:0.945946 173:1 174:0.563636 175:0.543689 176:1 177:0.824561 178:1 179:0.952381 180:1 181:0.819444 182:0.673077 183:0.722222 184:0.6 185:0.558442 186:0.35 187:0.604167 188:0.627451 189:0.454545 190:0.568627 191:0.714286 192:0.571429 193:0.622642 194:0.576923 195:0.46875 196:0.929825 197:0.695652 198:0.955556 199:0.843137 200:0.604651 201:0.653846 202:1 203:0.916667 204:0.688889 205:0.555556 206:0.954545 207:0.644444 208:0.76 209:0.888889 210:0.653061 211:0.777778 212:0.777778 213:0.526316 214:0.520548 215:0.283582 216:0.347826 217:0.333333 218:0.26087 219:0.346667 220:0.493976 221:0.549451 222:0.360825 223:0.583333 224:0.590909 225:0.446809 226:0.62 227:0.939394 228:0.619048 229:0.389831 230:0.540984 231:0.606557 232:0.854545 233:0.957447 234:0.630435 235:0.568966 236:0.55102 237:0.566038 238:0.862069 239:1 240:0.75 241:0.780488 242:0.62 243:0.627451 244:0.6 245:0.744681 246:0.652174 247:0.584416 248:0.56338 249:0.481928 250:0.4 251:0.22973 252:0.396825 253:0.618182 254:1 255:1 256:1 257:1 258:0.55 259:0.795455 260:0.826087 261:0.521739 262:0.906977 263:0.80597 264:0.529412 265:0.216216 266:0.375 267:0.723077 268:0.924528 269:0.714286 270:0.432099 271:0.451613 272:0.648649 273:0.540541 274:1 275:0.462687 276:0.131148 277:1 278:0.772727 279:0.891304 280:0.818182 281:0.789474 282:0.448276 283:0.9 284:0.830189 285:0.956522 286:0.866667 287:0.829268 288:0.577778 
0.125 1:0.791667 2:0.7 3:0.584906 4:0.773585 5:0.630435 6:0.202703 7:0.645161 8:0.4 9:0.162791 10:0.52 11:0.365079 12:0.147727 13:0.558824 14:0.35 15:0.40678 16:0.728814 17:0.266667 18:0.137931 19:1 20:0.342105 21:0.575758 22:0.413793 23:0.112676 24:0.152174 25:1 26:0.571429 27:0.695652 28:0.634615 29:0.796296 30:0.304878 31:0.943662 32:0.372549 33:0.65625 34:0.560976 35:0.619048 36:0.5 37:0.608696 38:0.591837 39:0.545455 40:0.542373 41:0.46875 42:0.218182 43:0.511111 44:0.157895 45:0.0566038 46:0.416667 47:0.52 48:0.234043 49:0.62069 50:0.276596 51:0.343284 52:0.708333 53:0.310345 54:0.113636 55:0.629032 56:0.552632 57:0.55102 58:0.684211 59:0.230769 60:0.214286 61:0.482143 62:0.703704 63:0.422222 64:0.540541 65:0.48 66:0.538462 67:0.10989 68:0.170455 69:0.271605 70:0.258824 71:0.377049 72:0.328358 73:0.290909 74:0.441558 75:0.466667 76:0.460317 77:0.534247 78:0.276596 79:0.488889 80:0.3125 81:0.0806452 82:0.435484 83:0.688525 84:0.294118 85:0.716981 86:0.690476 87:0.254237 88:0.82 89:0.45098 90:0.161765 91:0.824561 92:0.55 93:0.571429 94:0.625 95:0.210526 96:0.0277778 97:0.928571 98:0.564103 99:0.378378 100:0.407407 101:0.372093 102:0.160714 103:0.188889 104:0.0597015 105:0.111111 106:0.294118 108:0.104478 109:0.267857 110:0.928571 111:0.634615 112:0.586957 113:0.5 114:0.605634 115:0.358974 116:0.56 117:0.27027 118:0.5 119:0.365079 120:0.347826 121:0.0833333 122:0.706897 123:0.433962 124:0.690909 125:0.451613 126:0.228571 127:0.517241 128:1 129:0.914286 130:0.558824 131:0.264151 132:0.241379 133:0.836066 134:0.913793 135:0.942857 136:0.58 137:0.738095 138:0.62069 139:0.161765 140:0.788462 141:0.65 142:0.617647 143:0.230769 144:0.880952 145:0.255556 146:0.822222 147:0.560976 148:0.651163 149:0.611111 150:0.206349 151:0.449438 152:0.6875 153:0.5 154:0.6 155:0.403846 156:0.195122 157:0.239583 158:0.152542 159:0.59322 160:0.71875 161:0.513514 162:0.206897 163:0.561224 164:0.464286 165:0.25641 166:0.290323 167:0.16 168:0.147368 169:0.0408163 170:0.679245 171:0.916667 172:0.567568 173:0.215686 174:0.145455 176:1 177:0.789474 178:0.77551 179:0.857143 180:0.577778 181:0.291667 182:0.423077 183:0.388889 184:0.428571 185:0.428571 186:0.15 187:0.75 188:0.490196 189:0.136364 190:0.509804 191:0.571429 192:0.206349 193:0.54717 194:0.134615 195:0.25 196:0.807018 197:0.217391 198:0.177778 199:0.627451 200:0.27907 201:0.288462 202:0.424242 203:0.222222 204:0.0444444 205:0.333333 206:0.613636 207:0.422222 208:0.28 209:0.133333 210:0.122449 211:0.574074 212:0.571429 213:0.381579 214:0.342466 215:0.0597015 216:0.362319 217:0.208333 218:0.130435 219:0.2 220:0.301205 221:0.43956 222:0.309278 223:0.729167 224:0.545455 225:0.0425532 226:0.44 227:0.909091 228:0.52381 229:0.271186 230:0.442623 231:0.360656 232:0.690909 233:0.489362 234:0.108696 235:0.672414 236:0.510204 237:0.377358 238:0.724138 239:0.235294 240:0.075 241:0.682927 242:0.38 243:0.45098 244:0.4 245:0.617021 246:0.326087 247:0.792208 248:0.56338 249:0.445783 250:0.306667 251:0.148649 252:0.349206 253:0.6 254:0.7 255:0.630435 256:0.632653 257:0.686275 258:0.216667 259:0.477273 260:0.76087 261:0.326087 262:0.604651 263:0.671642 264:0.367647 265:0.121622 266:0.375 267:0.676923 268:0.886792 269:0.553571 270:0.320988 271:0.354839 272:0.918919 273:0.324324 274:0.441176 275:0.164179 276:0.0491803 277:0.609375 278:0.333333 279:0.913043 280:0.606061 281:0.0526316 282:0.0689655 283:0.657143 284:0.150943 285:0.753623 286:1 287:0.853659 288:0.444444 
0.125 1:0.666667 2:1 3:1 4:1 5:1 6:0.378378 7:0.596774 8:0.533333 9:0.534884 10:0.78 11:0.571429 12:0.272727 13:0.308824 14:0.35 15:0.694915 16:0.966102 17:0.422222 18:0.344828 19:0.88 20:0.973684 21:0.787879 22:1 23:0.478873 24:0.315217 25:0.512195 26:0.571429 27:1 28:1 29:0.925926 30:0.292683 31:0.760563 32:0.745098 33:0.828125 34:0.829268 35:1 36:0.594595 37:0.630435 38:1 39:0.836364 40:0.983051 41:0.859375 42:0.490909 43:0.533333 44:0.5 45:0.377358 46:0.7 47:1 48:0.702128 49:0.793103 50:0.574468 51:0.462687 52:0.895833 53:0.603448 54:0.863636 55:0.83871 56:0.710526 57:0.836735 58:1 59:0.871795 60:0.857143 61:0.642857 62:0.777778 63:0.888889 64:1 65:1 66:0.897436 67:0.714286 68:0.511364 69:0.37037 70:0.376471 71:0.42623 72:0.283582 73:0.327273 74:0.61039 75:0.833333 76:0.746032 77:0.712329 78:0.414894 79:0.288889 80:0.229167 81:0.370968 82:0.451613 83:0.754098 84:0.514706 85:0.528302 86:0.97619 87:0.423729 88:0.72 89:0.627451 90:0.544118 91:0.596491 92:0.475 93:0.612245 94:0.9375 95:0.947368 96:0.805556 97:0.52381 98:0.74359 99:0.810811 100:1 101:1 102:0.678571 103:0.244444 104:0.671642 105:0.333333 106:0.352941 107:0.142857 108:0.38806 109:0.553571 110:1 111:1 112:1 113:1 114:0.84507 115:0.692308 116:0.6 117:0.594595 118:0.717391 119:0.492063 120:0.536232 121:0.283333 122:0.603448 123:0.679245 124:0.890909 125:0.693548 126:0.333333 127:0.37931 128:0.811321 129:0.885714 130:1 131:0.603774 132:0.425287 133:0.47541 134:0.37931 135:0.857143 136:1 137:0.809524 138:0.534483 139:0.529412 140:0.653846 141:0.675 142:0.941176 143:0.74359 144:0.5 145:0.622222 146:1 147:1 148:0.953488 149:1 150:0.396825 151:0.662921 152:0.833333 153:0.704545 154:0.9 155:0.942308 156:0.487805 157:0.28125 158:0.101695 159:0.677966 160:0.890625 161:0.648649 162:0.482759 163:0.55102 164:0.678571 165:0.564103 166:1 167:0.66 168:0.389474 169:0.438776 170:1 171:0.833333 172:0.945946 173:1 174:0.563636 175:0.543689 176:1 177:0.824561 178:1 179:0.952381 180:1 181:0.819444 182:0.673077 183:0.722222 184:0.6 185:0.558442 186:0.35 187:0.604167 188:0.627451 189:0.454545 190:0.568627 191:0.714286 192:0.571429 193:0.622642 194:0.576923 195:0.46875 196:0.929825 197:0.695652 198:0.955556 199:0.843137 200:0.604651 201:0.653846 202:1 203:0.916667 204:0.688889 205:0.555556 206:0.954545 207:0.644444 208:0.76 209:0.888889 210:0.653061 211:0.777778 212:0.777778 213:0.526316 214:0.520548 215:0.283582 216:0.347826 217:0.333333 218:0.26087 219:0.346667 220:0.493976 221:0.549451 222:0.360825 223:0.583333 224:0.590909 225:0.446809 226:0.62 227:0.939394 228:0.619048 229:0.389831 230:0.540984 231:0.606557 232:0.854545 233:0.957447 234:0.630435 235:0.568966 236:0.55102 237:0.566038 238:0.862069 239:1 240:0.75 241:0.780488 242:0.62 243:0.627451 244:0.6 245:0.744681 246:0.652174 247:0.584416 248:0.56338 249:0.481928 250:0.4 251:0.22973 252:0.396825 253:0.618182 254:1 255:1 256:1 257:1 258:0.55 259:0.795455 260:0.826087 261:0.521739 262:0.906977 263:0.80597 264:0.529412 265:0.216216 266:0.375 267:0.723077 268:0.924528 269:0.714286 270:0.432099 271:0.451613 272:0.648649 273:0.540541 274:1 275:0.462687 276:0.131148 277:1 278:0.772727 279:0.891304 280:0.818182 281:0.789474 282:0.448276 283:0.9 284:0.830189 285:0.956522 286:0.866667 287:0.829268 288:0.577778 
0.125 1:0.791667 2:0.7 3:0.584906 4:0.773585 5:0.630435 6:0.202703 7:0.645161 8:0.4 9:0.162791 10:0.52 11:0.365079 12:0.147727 13:0.558824 14:0.35 15:0.40678 16:0.728814 17:0.266667 18:0.137931 19:1 20:0.342105 21:0.575758 22:0.413793 23:0.112676 24:0.152174 25:1 26:0.571429 27:0.695652 28:0.634615 29:0.796296 30:0.304878 31:0.943662 32:0.372549 33:0.65625 34:0.560976 35:0.619048 36:0.5 37:0.608696 38:0.591837 39:0.545455 40:0.542373 41:0.46875 42:0.218182 43:0.511111 44:0.157895 45:0.0566038 46:0.416667 47:0.52 48:0.234043 49:0.62069 50:0.276596 51:0.343284 52:0.708333 53:0.310345 54:0.113636 55:0.629032 56:0.552632 57:0.55102 58:0.684211 59:0.230769 60:0.214286 61:0.482143 62:0.703704 63:0.422222 64:0.540541 65:0.48 66:0.538462 67:0.10989 68:0.170455 69:0.271605 70:0.258824 71:0.377049 72:0.328358 73:0.290909 74:0.441558 75:0.466667 76:0.460317 77:0.534247 78:0.276596 79:0.488889 80:0.3125 81:0.0806452 82:0.435484 83:0.688525 84:0.294118 85:0.716981 86:0.690476 87:0.254237 88:0.82 89:0.45098 90:0.161765 91:0.824561 92:0.55 93:0.571429 94:0.625 95:0.210526 96:0.0277778 97:0.928571 98:0.564103 99:0.378378 100:0.407407 101:0.372093 102:0.160714 103:0.188889 104:0.0597015 105:0.111111 106:0.294118 108:0.104478 109:0.267857 110:0.928571 111:0.634615 112:0.586957 113:0.5 114:0.605634 115:0.358974 116:0.56 117:0.27027 118:0.5 119:0.365079 120:0.347826 121:0.0833333 122:0.706897 123:0.433962 124:0.690909 125:0.451613 126:0.228571 127:0.517241 128:1 129:0.914286 130:0.558824 131:0.264151 132:0.241379 133:0.836066 134:0.913793 135:0.942857 136:0.58 137:0.738095 138:0.62069 139:0.161765 140:0.788462 141:0.65 142:0.617647 143:0.230769 144:0.880952 145:0.255556 146:0.822222 147:0.560976 148:0.651163 149:0.611111 150:0.206349 151:0.449438 152:0.6875 153:0.5 154:0.6 155:0.403846 156:0.195122 157:0.239583 158:0.152542 159:0.59322 160:0.71875 161:0.513514 162:0.206897 163:0.561224 164:0.464286 165:0.25641 166:0.290323 167:0.16 168:0.147368 169:0.0408163 170:0.679245 171:0.916667 172:0.567568 173:0.215686 174:0.145455 176:1 177:0.789474 178:0.77551 179:0.857143 180:0.577778 181:0.291667 182:0.423077 183:0.388889 184:0.428571 185:0.428571 186:0.15 187:0.75 188:0.490196 189:0.136364 190:0.509804 191:0.571429 192:0.206349 193:0.54717 194:0.134615 195:0.25 196:0.807018 197:0.217391 198:0.177778 199:0.627451 200:0.27907 201:0.288462 202:0.424242 203:0.222222 204:0.0444444 205:0.333333 206:0.613636 207:0.422222 208:0.28 209:0.133333 210:0.122449 211:0.574074 212:0.571429 213:0.381579 214:0.342466 215:0.0597015 216:0.362319 217:0.208333 218:0.130435 219:0.2 220:0.301205 221:0.43956 222:0.309278 223:0.729167 224:0.545455 225:0.0425532 226:0.44 227:0.909091 228:0.52381 229:0.271186 230:0.442623 231:0.360656 232:0.690909 233:0.489362 234:0.108696 235:0.672414 236:0.510204 237:0.377358 238:0.724138 239:0.235294 240:0.075 241:0.682927 242:0.38 243:0.45098 244:0.4 245:0.617021 246:0.326087 247:0.792208 248:0.56338 249:0.445783 250:0.306667 251:0.148649 252:0.349206 253:0.6 254:0.7 255:0.630435 256:0.632653 257:0.686275 258:0.216667 259:0.477273 260:0.76087 261:0.326087 262:0.604651 263:0.671642 264:0.367647 265:0.121622 266:0.375 267:0.676923 268:0.886792 269:0.553571 270:0.320988 271:0.354839 272:0.918919 273:0.324324 274:0.441176 275:0.164179 276:0.0491803 277:0.609375 278:0.333333 279:0.913043 280:0.606061 281:0.0526316 282:0.0689655 283:0.657143 284:0.150943 285:0.753623 286:1 287:0.853659 288:0.444444 
0.125 1:0.583333 2:0.475 3:0.566038 4:0.603774 5:0.391304 6:0.135135 7:0.33871 8:0.0888889 9:0.395349 10:0.56 11:0.285714 12:0.0909091 13:0.323529 14:0.2 15:0.59322 16:0.745763 17:0.222222 18:0.218391 19:0.253333 20:0.236842 21:0.818182 22:0.448276 23:0.126761 24:0.25 25:0.512195 26:0.396825 27:0.586957 28:0.5 29:0.407407 30:0.317073 31:0.943662 32:0.54902 33:0.625 34:0.439024 35:0.452381 36:0.391892 37:0.543478 38:0.55102 39:0.654545 40:0.677966 41:0.515625 43:0.444444 44:0.289474 45:0.283019 46:0.45 47:0.48 48:0.0638298 49:0.758621 50:0.255319 51:0.402985 52:0.75 53:0.310345 54:0.25 55:0.370968 56:0.0789474 57:0.571429 58:0.815789 59:0.410256 60:0.261905 61:0.339286 62:0.555556 63:0.488889 64:0.621622 65:0.56 66:0.461538 67:0.483516 68:0.272727 69:0.259259 70:0.294118 71:0.360656 72:0.208955 73:0.290909 74:0.506494 75:0.55 76:0.571429 77:0.547945 78:0.191489 79:0.377778 80:0.416667 81:0.354839 82:0.483871 83:0.557377 84:0.0294118 85:0.490566 86:0.809524 87:0.389831 88:0.82 89:0.411765 90:0.191176 91:0.122807 92:0.025 93:0.571429 94:0.71875 95:0.263158 96:0.277778 97:0.619048 98:0.282051 99:0.324324 100:0.444444 101:0.302326 102:0.214286 103:0.344444 104:0.328358 105:0.148148 106:0.411765 107:0.125 108:0.104478 109:0.321429 110:0.809524 111:0.673077 112:0.608696 113:0.538462 114:0.746479 115:0.205128 116:0.4 117:0.567568 118:0.521739 119:0.396825 120:0.637681 122:0.62069 123:0.660377 124:0.690909 125:0.596774 126:0.504762 127:0.155172 128:0.735849 129:0.742857 130:0.588235 131:0.377358 132:0.448276 133:0.295082 134:0.5 135:0.514286 136:0.64 137:0.5 138:0.568966 139:0.191176 140:0.807692 141:0.5 142:0.764706 143:0.461538 144:0.785714 145:0.277778 146:0.911111 147:0.609756 148:0.697674 149:0.592593 150:0.349206 151:0.337079 152:0.708333 153:0.772727 154:0.6 155:0.403846 156:0.317073 157:0.135417 158:0.169492 159:0.576271 160:0.75 161:0.445946 162:0.505747 164:0.5 165:0.512821 166:0.548387 167:0.32 168:0.410526 170:0.886792 171:0.625 172:0.513514 173:0.372549 174:0.127273 175:0.281553 176:0.803571 177:0.350877 178:0.44898 179:0.547619 180:0.288889 181:0.222222 182:0.346154 183:0.333333 184:0.414286 185:0.38961 187:0.604167 188:0.509804 189:0.340909 190:0.568627 191:0.634921 193:0.207547 195:0.3125 196:0.649123 197:0.173913 198:0.155556 199:0.156863 200:0.186047 201:0.326923 202:0.484848 203:0.555556 204:0.222222 205:0.222222 206:0.659091 207:0.4 208:0.4 211:0.462963 212:0.365079 213:0.131579 214:0.205479 216:0.188406 217:0.222222 218:0.246377 219:0.373333 220:0.409639 221:0.450549 222:0.154639 223:0.604167 224:0.613636 225:0.468085 226:0.6 227:0.727273 228:0.269841 231:0.42623 232:0.672727 233:0.489362 234:0.26087 235:0.465517 236:0.0612245 237:0.320755 238:0.758621 239:0.470588 240:0.25 241:0.609756 242:0.36 243:0.529412 244:0.44 246:0.0652174 247:0.376623 248:0.323944 249:0.204819 250:0.106667 252:0.142857 253:0.690909 254:0.8 255:0.804348 256:0.734694 257:0.705882 258:0.2 259:0.522727 260:0.869565 261:0.630435 262:0.767442 263:0.671642 264:0.279412 265:0.256757 266:0.25 267:0.753846 268:0.943396 269:0.5 270:0.444444 271:1 272:0.351351 273:0.324324 274:0.529412 275:0.343284 276:0.196721 277:0.8125 278:0.666667 279:0.608696 280:0.333333 281:0.0526316 282:0.293103 283:0.728571 284:0.415094 285:0.536232 286:0.511111 287:0.439024 288:0.333333 
0.125 1:0.625 2:0.3 3:0.358491 4:0.433962 5:0.608696 6:0.824324 7:0.467742 8:0.577778 9:0.534884 10:0.56 11:0.634921 12:0.909091 13:0.308824 14:0.116667 15:0.322034 16:0.457627 17:0.122222 18:0.827586 19:0.533333 20:0.105263 21:0.30303 22:0.0689655 23:0.183099 24:0.73913 25:0.292683 26:0.333333 27:0.326087 28:0.480769 29:0.444444 30:0.780488 31:0.676056 32:0.960784 33:0.640625 34:0.707317 35:0.571429 36:0.824324 37:0.304348 38:0.183673 39:0.218182 40:0.271186 41:0.390625 42:0.109091 43:0.244444 44:0.289474 45:0.358491 46:0.383333 47:0.56 48:0.361702 49:0.465517 50:0.531915 51:0.19403 52:0.541667 53:0.413793 54:0.204545 55:0.370968 56:0.315789 57:0.122449 58:0.5 59:0.538462 60:0.52381 61:0.660714 62:0.62963 63:0.244444 64:0.567568 65:0.58 66:0.641026 67:0.956044 68:0.931818 69:0.901235 70:0.964706 71:1 72:0.895522 73:0.181818 74:0.220779 75:0.15 76:0.301587 77:0.424658 78:0.170213 79:0.244444 80:0.229167 81:0.258065 82:0.354839 83:0.704918 84:0.308824 85:0.396226 86:0.642857 87:0.220339 88:0.58 89:0.45098 90:0.132353 91:0.438596 92:0.325 93:0.204082 94:0.53125 95:0.605263 96:0.333333 97:0.690476 98:0.948718 99:0.216216 100:0.259259 101:0.44186 102:0.517857 103:0.588889 104:0.522388 105:0.555556 106:0.647059 107:0.517857 108:0.731343 109:0.517857 110:0.452381 111:0.25 112:0.195652 113:0.423077 114:0.338028 115:0.333333 116:0.52 117:0.594595 118:0.434783 119:0.253968 120:0.188406 121:0.416667 122:0.448276 123:0.245283 124:0.454545 125:0.258065 126:0.0571429 127:0.655172 128:0.716981 129:0.514286 130:0.205882 131:0.245283 132:0.126437 133:0.688525 134:0.465517 135:0.428571 136:0.2 137:0.309524 138:0.310345 139:0.852941 140:0.442308 141:0.7 142:0.735294 143:0.307692 144:0.428571 145:0.944444 146:0.511111 147:0.365854 148:0.395349 149:0.425926 150:0.047619 151:0.94382 152:0.791667 153:0.659091 154:0.475 155:0.730769 156:0.207317 157:0.833333 158:0.220339 159:0.254237 160:0.53125 161:0.445946 162:0.091954 163:0.826531 164:0.625 165:0.179487 166:0.16129 167:0.2 168:0.147368 169:0.826531 170:0.603774 171:0.666667 172:0.540541 173:0.627451 174:0.309091 175:0.941748 176:0.892857 177:0.754386 178:0.571429 179:0.380952 180:0.4 181:0.347222 182:0.288462 183:0.314815 184:0.471429 185:0.480519 186:0.483333 187:0.416667 188:0.27451 189:0.295455 190:0.333333 191:0.68254 192:0.333333 193:0.358491 194:0.423077 195:0.375 196:0.578947 197:0.456522 198:0.333333 199:0.568627 200:0.767442 201:0.0961538 202:0.242424 203:0.388889 204:0.133333 205:0.574074 206:0.840909 207:0.266667 208:0.44 209:0.555556 210:0.530612 211:0.814815 212:0.634921 213:0.289474 214:0.342466 215:0.149254 216:0.275362 217:0.347222 218:0.782609 219:0.906667 220:0.879518 221:0.956044 222:0.938144 223:0.4375 224:0.454545 225:0.191489 226:0.54 227:0.939394 228:0.460317 229:0.152542 230:0.311475 231:0.393443 232:0.581818 233:0.744681 234:0.217391 235:0.206897 236:0.306122 237:0.150943 238:0.517241 239:0.176471 240:0.175 241:0.463415 242:0.38 243:0.372549 244:0.48 245:0.510638 246:0.543478 247:0.454545 248:0.422535 249:0.253012 250:0.266667 251:0.202703 252:0.301587 253:0.490909 254:0.325 255:0.369565 256:0.306122 257:0.45098 258:0.633333 259:0.386364 260:0.652174 261:0.326087 262:0.511628 263:0.552239 264:0.602941 265:0.216216 266:0.232143 267:0.338462 268:0.660377 269:0.267857 270:0.617284 271:0.790323 272:0.810811 273:0.162162 274:0.411765 275:0.238806 276:0.459016 277:0.828125 278:0.727273 279:0.521739 280:0.606061 281:0.605263 282:0.931034 283:0.685714 284:0.754717 285:0.57971 286:0.755556 287:0.414634 288:0.711111 
0.125 1:0.416667 2:0.3 3:0.320755 4:0.339623 5:0.630435 6:0.864865 7:0.225806 8:0.222222 9:0.511628 10:0.56 11:0.571429 12:0.909091 13:0.323529 14:0.366667 15:0.423729 16:0.576271 17:0.144444 18:0.781609 19:0.426667 20:0.210526 21:0.272727 22:0.241379 23:0.0704225 24:0.728261 25:0.682927 26:0.444444 27:0.304348 28:0.557692 29:0.388889 30:0.792683 31:1 32:0.764706 33:0.515625 34:0.756098 35:0.595238 36:0.851351 37:0.413043 38:0.306122 39:0.309091 40:0.372881 41:0.515625 42:0.109091 43:0.266667 44:0.368421 45:0.320755 46:0.45 47:0.66 48:0.404255 49:0.517241 50:0.510638 51:0.208955 52:0.520833 53:0.258621 54:0.295455 55:0.419355 56:0.236842 57:0.122449 58:0.526316 59:0.410256 60:0.428571 61:0.339286 62:0.37037 63:0.266667 64:0.648649 65:0.24 66:0.435897 67:0.78022 68:0.909091 69:0.814815 70:0.858824 71:0.885246 72:0.80597 73:0.236364 74:0.272727 75:0.25 76:0.190476 77:0.438356 78:0.202128 79:0.377778 80:0.291667 81:0.419355 82:0.435484 83:0.655738 84:0.338235 85:0.509434 86:0.785714 87:0.372881 88:0.58 89:0.372549 90:0.205882 91:0.508772 92:0.4 93:0.306122 94:0.5625 95:0.421053 96:0.222222 97:0.642857 98:0.74359 99:0.189189 100:0.185185 101:0.232558 102:0.303571 103:0.577778 104:0.537313 105:0.648148 106:0.838235 107:0.589286 108:0.731343 109:0.517857 110:0.404762 111:0.288462 112:0.347826 113:0.403846 114:0.323944 115:0.410256 116:0.3 117:0.594595 118:0.630435 119:0.238095 120:0.144928 121:0.383333 122:0.431034 123:0.339623 124:0.654545 125:0.370968 126:0.104762 127:0.568966 128:0.396226 129:0.2 130:0.352941 131:0.0566038 132:0.137931 133:0.672131 134:0.568966 135:0.257143 136:0.32 137:0.142857 138:0.310345 139:0.808824 140:0.596154 141:0.375 142:0.705882 143:0.333333 144:0.47619 145:0.944444 146:0.466667 147:0.365854 148:0.209302 149:0.574074 150:0.0952381 151:0.865169 152:0.395833 153:0.727273 154:0.525 155:0.807692 156:0.256098 157:0.864583 158:0.169492 159:0.322034 160:0.546875 161:0.351351 162:0.149425 163:0.897959 164:0.5 165:0.153846 166:0.0322581 167:0.1 168:0.115789 169:0.806122 170:0.509434 171:0.604167 172:0.486486 173:0.294118 174:0.0545455 175:0.84466 176:0.964286 177:0.684211 178:0.510204 179:0.309524 180:0.311111 181:0.333333 182:0.269231 183:0.296296 184:0.414286 185:0.532468 186:0.566667 187:0.583333 188:0.431373 189:0.363636 190:0.333333 191:0.634921 192:0.31746 193:0.377358 194:0.365385 195:0.453125 196:0.666667 197:0.391304 198:0.355556 199:0.431373 200:0.418605 201:0.211538 202:0.363636 203:0.361111 204:0.222222 205:0.407407 206:0.522727 207:0.311111 208:0.6 209:0.311111 210:0.387755 211:0.666667 212:0.634921 213:0.223684 214:0.424658 215:0.208955 216:0.246377 217:0.333333 218:0.84058 219:0.973333 220:0.927711 221:0.945055 222:0.938144 223:0.5 224:0.5 225:0.297872 226:0.58 227:0.924242 228:0.47619 229:0.186441 230:0.409836 231:0.491803 232:0.636364 233:0.595745 234:0.282609 235:0.37931 236:0.795918 237:0.245283 238:0.724138 239:0.617647 240:0.325 241:0.536585 242:0.36 243:0.352941 244:0.68 245:0.319149 246:0.5 247:0.480519 248:0.380282 249:0.228916 250:0.28 251:0.0810811 252:0.269841 253:0.454545 254:0.4 255:0.413043 256:0.387755 257:0.588235 258:0.416667 259:0.295455 260:0.521739 261:0.521739 262:0.697674 263:0.58209 264:0.544118 265:0.135135 267:0.4 268:0.679245 269:0.392857 270:0.691358 271:0.645161 272:0.297297 274:0.147059 275:0.119403 276:0.47541 277:0.5625 278:0.484848 279:0.347826 280:0.545455 282:0.810345 283:0.528571 284:0.679245 285:0.449275 286:0.666667 287:0.341463 288:0.577778 
0.125 1:0.541667 2:0.225 3:0.169811 4:0.528302 5:0.695652 6:0.810811 7:0.370968 8:0.177778 9:0.325581 10:0.48 11:0.603175 12:0.886364 13:0.308824 14:0.15 15:0.288136 16:0.491525 17:0.2 18:0.816092 19:0.56 20:0.184211 21:0.424242 22:0.482759 23:0.211268 24:0.728261 25:0.609756 26:0.380952 27:0.282609 28:0.576923 29:0.462963 30:0.817073 31:0.915493 32:0.705882 33:0.46875 34:0.707317 35:0.571429 36:0.837838 37:0.413043 38:0.367347 39:0.345455 40:0.372881 41:0.53125 42:0.181818 43:0.311111 44:0.184211 45:0.433962 46:0.433333 47:0.72 48:0.489362 49:0.586207 50:0.468085 51:0.298507 52:0.541667 53:0.258621 54:0.454545 55:0.548387 56:0.263158 57:0.22449 58:0.5 59:0.461538 60:0.571429 61:0.357143 62:0.185185 63:0.355556 64:0.567568 65:0.34 66:0.487179 67:0.846154 68:0.863636 69:0.925926 70:0.941176 71:1 72:0.80597 73:0.272727 74:0.324675 75:0.4 76:0.365079 77:0.520548 78:0.234043 79:0.444444 80:0.166667 81:0.403226 82:0.403226 83:0.688525 84:0.352941 85:0.45283 86:0.880952 87:0.288136 88:0.48 89:0.411765 90:0.205882 91:0.526316 92:0.475 93:0.163265 94:0.4375 95:0.578947 96:0.333333 97:0.714286 98:0.615385 99:0.027027 100:0.148148 101:0.302326 102:0.339286 103:0.566667 104:0.522388 105:0.5 106:0.676471 107:0.535714 108:0.731343 109:0.857143 110:0.428571 111:0.307692 112:0.456522 113:0.480769 114:0.253521 115:0.820513 116:0.4 117:0.540541 118:0.586957 119:0.301587 120:0.130435 121:0.5 122:0.293103 123:0.226415 124:0.581818 125:0.483871 126:0.133333 127:0.775862 128:0.490566 129:0.342857 130:0.5 131:0.0943396 132:0.195402 133:0.737705 134:0.5 135:0.228571 136:0.38 137:0.238095 138:0.37931 139:0.882353 140:0.788462 141:0.5 142:0.676471 143:0.282051 144:0.452381 145:0.855556 146:0.311111 147:0.292683 148:0.27907 149:0.518519 150:0.174603 151:0.842697 152:0.458333 153:0.477273 154:0.525 155:0.788462 156:0.280488 157:0.864583 158:0.0847458 159:0.254237 160:0.53125 161:0.391892 162:0.149425 163:0.908163 164:0.410714 165:0.179487 166:0.419355 167:0.28 168:0.115789 169:0.846939 170:0.358491 171:0.5 172:0.594595 173:0.45098 174:0.0545455 175:0.941748 176:0.696429 177:0.438596 178:0.44898 179:0.5 180:0.333333 181:0.375 182:0.403846 183:0.277778 184:0.557143 185:0.480519 186:0.5 187:0.479167 188:0.352941 189:0.318182 190:0.392157 191:0.761905 192:0.396825 193:0.358491 194:0.288462 195:0.390625 196:0.561404 197:0.413043 198:0.444444 199:0.490196 200:0.27907 201:0.192308 202:0.212121 203:0.416667 204:0.333333 205:0.5 206:0.409091 207:0.266667 208:0.6 209:0.422222 210:0.408163 211:0.722222 212:0.380952 213:0.197368 214:0.410959 215:0.179104 216:0.15942 217:0.375 218:0.84058 219:1 220:0.903614 221:0.989011 222:0.958763 223:0.541667 224:0.431818 225:0.404255 226:0.62 227:0.893939 228:0.47619 229:0.271186 230:0.393443 231:0.508197 232:0.654545 233:0.659574 234:0.326087 235:0.517241 236:0.897959 237:0.264151 238:0.448276 239:0.529412 240:0.4 241:0.536585 242:0.42 243:0.333333 244:0.6 245:0.425532 246:0.543478 247:0.38961 248:0.408451 249:0.26506 250:0.24 251:0.175676 252:0.285714 253:0.509091 254:0.45 255:0.478261 256:0.367347 257:0.509804 258:0.683333 259:0.545455 260:0.630435 261:0.652174 262:0.604651 263:0.671642 264:0.632353 265:0.216216 266:0.0714286 267:0.476923 268:0.622642 269:0.375 270:0.654321 271:0.548387 272:0.378378 273:0.162162 274:0.352941 275:0.119403 276:0.508197 277:0.53125 278:0.378788 279:0.434783 280:0.606061 281:0.105263 282:0.862069 283:0.6 284:0.603774 285:0.536232 286:0.555556 287:0.317073 288:0.755556 
0.125 1:0.541667 2:0.25 3:0.245283 4:0.339623 5:0.282609 6:0.72973 7:0.177419 8:0.0666667 9:0.44186 10:0.74 11:0.460317 12:0.897727 13:0.205882 14:0.0333333 15:0.338983 16:0.542373 17:0.166667 18:0.862069 19:0.573333 20:0.289474 21:0.0909091 22:0.103448 23:0.183099 24:0.804348 25:0.304878 27:0.195652 28:0.519231 29:0.203704 30:0.878049 31:0.450704 32:0.215686 33:0.515625 34:0.512195 35:0.309524 36:0.945946 37:0.326087 38:0.244898 39:0.181818 40:0.338983 41:0.4375 42:0.0909091 43:0.177778 44:0.131579 45:0.301887 46:0.733333 47:0.86 48:0.340426 49:0.655172 50:0.553191 51:0.238806 52:0.604167 53:0.241379 54:0.272727 55:0.564516 56:0.5 57:0.163265 58:0.473684 59:0.410256 60:0.404762 61:0.303571 62:0.037037 63:0.133333 64:0.324324 65:0.24 66:0.384615 67:0.802198 68:0.829545 69:0.790123 70:0.882353 71:0.885246 72:0.731343 73:0.290909 74:0.233766 75:0.2 76:0.269841 77:0.39726 78:0.170213 79:0.444444 80:0.1875 81:0.451613 82:0.774194 83:0.704918 84:0.323529 85:0.566038 86:0.547619 87:0.322034 88:0.74 89:0.352941 90:0.0882353 91:0.578947 92:0.475 93:0.163265 94:0.4375 95:0.421053 96:0.138889 97:0.547619 98:0.25641 100:0.148148 101:0.186047 102:0.178571 103:0.611111 104:0.507463 105:0.685185 106:0.735294 107:0.607143 108:0.731343 109:0.5 110:0.404762 111:0.211538 112:0.304348 113:0.346154 114:0.28169 115:0.25641 116:0.22 117:0.567568 118:0.782609 119:0.412698 120:0.202899 121:0.333333 122:0.431034 123:0.245283 124:0.527273 125:0.419355 126:0.0857143 127:0.396552 128:0.584906 129:0.314286 130:0.529412 131:0.169811 132:0.114943 133:0.540984 136:0.38 137:0.0714286 139:0.794118 140:0.0576923 141:0.175 142:0.411765 144:0.0238095 145:0.955556 146:0.466667 147:0.317073 148:0.139535 149:0.240741 150:0.031746 151:0.88764 152:0.479167 153:0.545455 154:0.6 155:0.692308 156:0.231707 157:0.895833 158:0.0508475 159:0.288136 160:0.71875 161:0.378378 162:0.137931 163:1 164:0.535714 165:0.128205 166:0.225806 167:0.18 168:0.0631579 169:0.826531 170:0.245283 171:0.333333 172:0.459459 173:0.372549 174:0.0909091 175:0.815534 176:0.357143 177:0.385965 178:0.55102 179:0.285714 180:0.311111 181:0.319444 182:0.326923 183:0.259259 184:0.4 185:0.402597 186:0.483333 187:0.5 188:0.294118 189:0.295455 190:0.490196 191:0.698413 192:0.301587 193:0.471698 194:0.519231 195:0.5625 196:0.859649 197:0.434783 198:0.333333 199:0.745098 200:0.906977 201:0.0961538 202:0.0909091 203:0.5 204:0.177778 205:0.425926 206:0.454545 207:0.311111 208:0.4 209:0.311111 210:0.244898 211:0.333333 212:0.0793651 213:0.157895 214:0.356164 215:0.164179 216:0.188406 217:0.486111 218:0.913043 219:0.946667 220:0.939759 221:1 222:0.948454 223:0.458333 224:0.340909 225:0.212766 226:0.68 227:0.878788 228:0.428571 229:0.20339 230:0.278689 231:0.52459 232:0.890909 233:0.702128 234:0.152174 235:0.413793 236:0.346939 237:0.0943396 238:0.655172 239:0.441176 240:0.175 241:0.390244 242:0.22 243:0.27451 244:0.56 245:0.170213 246:0.282609 247:0.194805 248:0.056338 249:0.168675 250:0.253333 251:0.0135135 252:0.15873 253:0.563636 254:0.475 255:0.347826 256:0.285714 257:0.352941 258:0.566667 259:0.431818 260:0.673913 261:0.304348 262:0.744186 263:0.656716 264:0.588235 265:0.189189 266:0.232143 267:0.461538 268:0.792453 269:0.410714 270:0.567901 271:0.612903 272:0.918919 273:0.378378 274:0.470588 275:0.104478 276:0.42623 277:0.515625 278:0.348485 279:0.456522 280:0.484848 281:0.131579 282:0.793103 283:0.357143 284:0.264151 285:0.507246 286:0.644444 287:0.317073 288:0.4 
0.125 1:0.604167 2:0.3 3:0.264151 4:0.415094 5:0.586957 6:0.837838 7:0.403226 8:0.377778 9:0.488372 10:0.48 11:0.603175 12:0.920455 13:0.294118 14:0.133333 15:0.440678 16:0.491525 17:0.144444 18:0.793103 19:0.586667 20:0.368421 21:0.272727 22:0.206897 23:0.140845 24:0.717391 25:0.487805 26:0.269841 27:0.326087 28:0.596154 29:0.555556 30:0.792683 31:0.887324 32:0.784314 33:0.609375 34:0.634146 35:0.595238 36:0.810811 37:0.391304 38:0.22449 39:0.254545 40:0.389831 41:0.453125 42:0.0727273 43:0.377778 44:0.315789 45:0.320755 46:0.383333 47:0.56 48:0.276596 49:0.655172 50:0.12766 51:0.268657 52:0.479167 53:0.189655 54:0.295455 55:0.629032 56:0.315789 57:0.44898 58:0.552632 59:0.25641 60:0.47619 61:0.696429 62:0.444444 63:0.222222 64:0.459459 65:0.4 66:0.512821 67:0.934066 68:0.920455 69:0.864198 70:0.917647 71:0.934426 72:0.776119 73:0.218182 74:0.207792 75:0.216667 76:0.31746 77:0.410959 78:0.170213 79:0.288889 80:0.104167 81:0.370968 82:0.322581 83:0.688525 84:0.323529 85:0.603774 86:0.690476 87:0.237288 88:0.56 89:0.411765 90:0.117647 91:0.754386 92:0.625 93:0.326531 94:0.5625 95:0.421053 96:0.277778 97:0.880952 98:0.897436 99:0.297297 100:0.407407 101:0.534884 102:0.464286 103:0.644444 104:0.641791 105:0.685185 106:0.794118 107:0.625 108:0.731343 109:0.642857 110:0.428571 111:0.211538 112:0.23913 113:0.365385 114:0.352113 115:0.487179 116:0.32 117:0.513514 118:0.456522 119:0.349206 120:0.231884 121:0.516667 122:0.413793 123:0.264151 124:0.581818 125:0.435484 126:0.0952381 127:0.810345 128:0.660377 129:0.428571 130:0.617647 131:0.188679 132:0.045977 133:0.721311 134:0.482759 135:0.257143 136:0.32 137:0.333333 138:0.206897 139:0.867647 140:0.576923 141:0.575 142:0.558824 143:0.307692 144:0.357143 145:0.944444 146:0.511111 147:0.390244 148:0.162791 149:0.462963 150:0.0634921 151:0.966292 152:0.666667 153:0.704545 154:0.4 155:0.788462 156:0.256098 157:0.864583 158:0.0677966 159:0.372881 160:0.46875 161:0.351351 162:0.16092 163:0.887755 164:0.571429 165:0.205128 166:0.0967742 167:0.04 168:0.0842105 169:0.816327 170:0.54717 171:0.5625 172:0.621622 173:0.431373 174:0.0909091 175:0.84466 176:0.785714 177:0.719298 178:0.632653 179:0.309524 180:0.2 181:0.291667 182:0.288462 183:0.296296 184:0.428571 185:0.454545 186:0.35 187:0.479167 188:0.392157 189:0.363636 190:0.235294 191:0.634921 192:0.349206 193:0.415094 194:0.346154 195:0.390625 196:0.473684 197:0.347826 198:0.355556 199:0.862745 200:0.72093 201:0.173077 202:0.30303 203:0.388889 204:0.2 205:0.685185 206:0.704545 207:0.288889 208:0.64 209:0.577778 210:0.469388 211:0.87037 212:0.619048 213:0.184211 214:0.39726 215:0.223881 216:0.246377 217:0.444444 218:0.869565 219:0.933333 220:0.939759 221:0.967033 222:0.989691 223:0.666667 224:0.409091 225:0.276596 226:0.6 227:0.878788 228:0.396825 229:0.271186 230:0.245902 231:0.459016 232:0.618182 233:0.638298 234:0.23913 235:0.482759 236:0.367347 237:0.339623 238:0.655172 239:0.411765 240:0.25 241:0.682927 242:0.44 243:0.509804 244:0.6 245:0.489362 246:0.5 247:0.571429 248:0.521127 249:0.313253 250:0.253333 251:0.0945946 252:0.238095 253:0.527273 254:0.45 255:0.326087 256:0.265306 257:0.45098 258:0.483333 259:0.477273 260:0.652174 261:0.456522 262:0.488372 263:0.656716 264:0.588235 265:0.189189 266:0.232143 267:0.476923 268:0.679245 269:0.357143 270:0.666667 271:0.741935 272:0.72973 273:0.378378 274:0.323529 276:0.491803 277:0.859375 278:0.530303 279:0.521739 280:0.606061 281:0.157895 282:0.844828 283:0.728571 284:0.509434 285:0.652174 286:0.8 287:0.365854 288:0.644444 
0.125 1:0.458333 2:0.25 3:0.415094 4:0.622642 5:0.434783 6:0.851351 7:0.145161 8:0.2 9:0.55814 10:0.22 11:0.269841 12:0.863636 13:0.367647 14:0.333333 15:0.0677966 16:0.0677966 17:0.0555556 18:0.758621 19:0.493333 20:0.184211 21:0.212121 22:0.448276 23:0.126761 24:0.673913 25:0.731707 26:0.539683 27:0.543478 28:0.673077 29:0.351852 30:0.743902 31:0.84507 32:0.72549 33:0.703125 34:0.926829 35:0.642857 36:0.824324 37:0.217391 38:0.183673 39:0.454545 40:0.627119 41:0.53125 42:0.145455 43:0.133333 44:0.210526 45:0.320755 46:0.416667 47:0.76 48:0.446809 49:0.568966 50:0.531915 51:0.0597015 52:0.0833333 53:0.103448 54:0.568182 55:0.564516 56:0.157895 57:0.306122 58:0.684211 59:0.641026 60:0.642857 61:0.410714 62:0.407407 63:0.377778 64:0.621622 65:0.42 66:0.589744 67:0.791209 68:0.897727 69:0.82716 70:0.905882 71:0.918033 72:0.910448 73:0.109091 74:0.142857 75:0.283333 76:0.396825 77:0.424658 78:0.202128 79:0.333333 80:0.208333 81:0.532258 82:0.274194 83:0.57377 84:0.323529 85:0.603774 86:0.928571 87:0.288136 88:0.12 89:0.0980392 90:0.279412 91:0.684211 92:0.575 93:0.285714 94:0.59375 95:0.5 96:0.388889 97:0.761905 98:0.589744 99:0.243243 100:0.481481 101:0.395349 102:0.339286 103:0.655556 104:0.58209 105:0.740741 106:0.779412 107:0.75 108:0.61194 109:0.535714 110:0.214286 111:0.346154 112:0.391304 113:0.346154 114:0.239437 115:0.230769 116:0.16 117:0.702703 118:0.217391 119:0.15873 120:0.15942 121:0.466667 122:0.327586 123:0.132075 124:0.0545455 125:0.112903 126:0.142857 127:0.775862 128:0.358491 129:0.4 130:0.5 131:0.188679 132:0.149425 133:0.868852 134:0.603448 135:0.6 136:0.5 137:0.261905 138:0.241379 139:0.955882 140:0.653846 141:0.75 142:0.764706 143:0.435897 144:0.452381 145:0.944444 146:0.311111 147:0.390244 148:0.674419 149:0.462963 150:0.0952381 151:0.853933 152:0.1875 153:0.5 154:0.175 155:0.538462 156:0.182927 157:0.854167 158:0.254237 159:0.220339 160:0.015625 161:0.0405405 162:0.126437 163:0.857143 164:0.464286 165:0.230769 166:0.290323 167:0.24 168:0.126316 169:0.816327 170:0.528302 171:0.604167 172:0.513514 173:0.372549 174:0.0727273 175:0.912621 176:0.785714 177:0.614035 178:0.510204 179:0.547619 180:0.311111 181:0.361111 182:0.346154 183:0.518519 184:0.642857 185:0.571429 186:0.916667 187:0.270833 188:0.215686 189:0.431818 190:0.392157 191:0.730159 192:0.412698 193:0.54717 194:0.442308 195:0.34375 196:0.140351 197:0.152174 198:0.533333 199:0.588235 200:0.0697674 201:0.173077 202:0.424242 203:0.416667 204:0.222222 205:0.555556 206:0.409091 207:0.533333 208:0.76 209:0.377778 210:0.346939 211:0.703704 212:0.555556 213:0.355263 214:0.39726 215:0.268657 216:0.202899 217:0.347222 218:0.826087 219:0.946667 220:0.903614 221:0.934066 222:0.804124 223:0.166667 224:0.0681818 225:0.382979 226:0.62 227:0.924242 228:0.460317 229:0.389831 230:0.622951 231:0.459016 232:0.218182 233:0.489362 234:0.5 235:0.586207 236:0.959184 237:0.264151 238:0.586207 239:0.617647 240:0.525 241:0.634146 242:0.48 243:0.470588 244:0.84 245:0.425532 246:0.543478 247:0.519481 248:0.492958 249:0.325301 250:0.333333 251:0.175676 252:0.238095 253:0.436364 254:0.3 255:0.478261 256:0.530612 257:0.45098 258:0.483333 259:0.227273 260:0.369565 261:0.304348 262:0.372093 263:0.597015 264:0.661765 265:0.256757 266:0.178571 267:0.169231 269:0.0714286 270:0.679012 271:0.564516 272:0.189189 273:0.108108 274:0.588235 275:0.223881 276:0.52459 277:0.59375 278:0.424242 279:0.543478 280:0.757576 281:0.184211 282:0.862069 283:0.771429 284:0.792453 285:0.536232 286:0.666667 287:0.609756 288:0.666667 
0.125 1:0.541667 2:0.275 3:0.358491 4:0.566038 5:0.413043 6:0.797297 7:0.419355 8:0.311111 9:0.674419 10:0.52 11:0.349206 12:0.863636 13:0.470588 14:0.2 15:0.40678 16:0.610169 17:0.222222 18:0.781609 19:0.52 20:0.0789474 21:0.0909091 22:0.172414 23:0.169014 24:0.673913 25:0.682927 26:0.507937 27:0.434783 28:0.538462 29:0.592593 30:0.743902 31:0.887324 32:0.784314 33:0.640625 34:0.634146 35:0.666667 36:0.878378 37:0.413043 38:0.265306 39:0.4 40:0.525424 41:0.46875 42:0.0545455 43:0.466667 44:0.315789 45:0.45283 46:0.533333 47:0.82 48:0.382979 49:0.672414 50:0.425532 51:0.343284 52:0.645833 53:0.344828 54:0.454545 55:0.612903 56:0.210526 57:0.346939 58:0.789474 59:0.487179 60:0.595238 61:0.517857 62:0.407407 63:0.466667 64:0.783784 65:0.42 66:0.615385 67:0.824176 68:0.863636 69:0.925926 70:0.894118 71:0.901639 72:0.865672 73:0.236364 74:0.142857 75:0.25 76:0.333333 77:0.452055 78:0.191489 79:0.355556 80:0.229167 81:0.467742 82:0.387097 83:0.704918 84:0.338235 85:0.584906 86:0.904762 87:0.322034 88:0.54 89:0.568627 90:0.279412 91:0.684211 92:0.4 93:0.122449 94:0.40625 95:0.657895 96:0.472222 97:0.714286 98:0.641026 99:0.108108 100:0.185185 101:0.395349 102:0.357143 103:0.655556 104:0.716418 105:0.537037 106:0.75 107:0.642857 108:0.656716 109:0.553571 110:0.142857 111:0.288462 112:0.413043 113:0.288462 114:0.28169 115:0.512821 116:0.32 117:0.675676 118:0.608696 119:0.253968 120:0.115942 121:0.55 122:0.362069 123:0.415094 124:0.636364 125:0.467742 126:0.104762 127:0.724138 128:0.396226 130:0.294118 131:0.150943 132:0.195402 133:0.754098 134:0.568966 135:0.485714 136:0.52 137:0.428571 138:0.37931 139:0.882353 140:0.75 141:0.75 142:0.794118 143:0.487179 144:0.47619 145:0.955556 146:0.244444 147:0.463415 148:0.488372 149:0.425926 150:0.0634921 151:0.977528 152:0.5 153:0.681818 154:0.65 155:0.692308 156:0.207317 157:0.833333 158:0.288136 159:0.508475 160:0.703125 161:0.391892 162:0.137931 163:0.877551 164:0.517857 165:0.358974 166:0.483871 167:0.24 168:0.147368 169:0.846939 170:0.471698 171:0.666667 172:0.675676 173:0.509804 174:0.2 175:0.941748 176:0.803571 177:0.649123 178:0.612245 179:0.642857 180:0.511111 181:0.333333 182:0.288462 183:0.407407 184:0.471429 185:0.545455 186:0.416667 187:0.4375 188:0.254902 189:0.340909 190:0.372549 191:0.698413 192:0.365079 193:0.641509 194:0.384615 195:0.546875 196:0.631579 197:0.608696 198:0.511111 199:0.72549 200:0.232558 201:0.192308 202:0.454545 203:0.361111 204:0.2 205:0.555556 206:0.545455 207:0.355556 208:0.6 209:0.4 210:0.44898 211:0.740741 212:0.507937 213:0.236842 214:0.356164 215:0.19403 216:0.217391 217:0.5 218:0.927536 219:0.933333 220:0.939759 221:0.923077 222:0.958763 223:0.645833 224:0.340909 225:0.319149 226:0.6 227:0.863636 228:0.396825 229:0.474576 230:0.557377 231:0.57377 232:0.709091 233:0.680851 234:0.369565 235:0.637931 236:0.959184 237:0.283019 238:0.724138 239:0.941176 240:0.6 241:0.609756 242:0.44 243:0.333333 244:0.68 245:0.595745 246:0.608696 247:0.454545 248:0.464789 249:0.240964 250:0.253333 251:0.148649 252:0.222222 253:0.527273 254:0.125 255:0.326087 256:0.44898 257:0.470588 258:0.566667 259:0.5 260:0.608696 261:0.521739 262:0.627907 263:0.597015 264:0.691176 265:0.216216 266:0.25 267:0.630769 268:0.735849 269:0.303571 270:0.641975 271:0.629032 272:0.324324 273:0.027027 274:0.588235 275:0.164179 276:0.57377 277:0.578125 278:0.454545 279:0.565217 280:0.787879 281:0.184211 282:0.948276 283:0.728571 284:0.716981 285:0.710145 286:0.733333 287:0.560976 288:0.822222 
0.125 1:0.5 2:0.2 3:0.45283 4:0.679245 5:0.565217 6:0.824324 7:0.370968 8:0.355556 9:0.488372 10:0.52 11:0.460317 12:0.852273 13:0.235294 14:0.116667 15:0.372881 16:0.677966 17:0.233333 18:0.770115 19:0.52 20:0.289474 21:0.606061 22:0.586207 23:0.15493 24:0.673913 25:0.487805 26:0.333333 27:0.586957 28:0.692308 29:0.5 30:0.780488 31:0.71831 32:0.745098 33:0.65625 34:0.756098 35:0.666667 36:0.851351 37:0.543478 38:0.367347 39:0.545455 40:0.525424 41:0.578125 42:0.290909 43:0.511111 44:0.421053 45:0.471698 46:0.55 47:0.88 48:0.617021 49:0.862069 50:0.425532 51:0.492537 52:0.6875 53:0.413793 54:0.681818 55:0.758065 56:0.631579 57:0.530612 58:0.736842 59:0.512821 60:0.785714 61:0.785714 62:0.518519 63:0.488889 64:0.756757 65:0.64 66:0.846154 67:0.89011 68:0.761364 69:0.82716 70:0.870588 71:0.885246 72:0.970149 73:0.4 74:0.272727 75:0.583333 76:0.571429 77:0.438356 78:0.234043 79:0.555556 80:0.145833 81:0.483871 82:0.5 83:0.672131 84:0.338235 85:0.660377 86:0.666667 87:0.372881 88:0.7 89:0.647059 90:0.367647 91:0.824561 92:0.65 93:0.244898 94:0.65625 95:0.552632 96:0.5 97:0.857143 98:0.871795 99:0.324324 100:0.666667 101:0.55814 102:0.482143 103:0.666667 104:0.865672 105:0.740741 106:0.823529 107:0.732143 108:0.597015 109:0.625 110:0.380952 111:0.346154 112:0.826087 113:0.5 114:0.323944 115:0.74359 116:0.42 117:0.72973 118:0.695652 119:0.301587 120:0.217391 121:0.75 122:0.534483 123:0.320755 124:0.672727 125:0.5 126:0.180952 127:0.758621 128:0.698113 129:0.542857 130:0.676471 131:0.301887 132:0.103448 133:0.639344 134:0.448276 135:0.457143 136:0.6 137:0.404762 138:0.310345 139:0.882353 140:0.5 141:0.725 142:0.794118 143:0.435897 144:0.47619 145:0.922222 146:0.488889 147:0.463415 148:0.581395 149:0.5 150:0.222222 151:0.88764 152:0.5 153:0.522727 154:0.55 155:0.75 156:0.329268 157:0.770833 158:0.220339 159:0.372881 160:0.546875 161:0.418919 162:0.195402 163:0.857143 164:0.571429 165:0.384615 166:0.516129 167:0.08 168:0.147368 169:0.867347 170:0.641509 171:0.791667 172:0.72973 173:0.607843 174:0.2 175:0.912621 176:0.803571 177:0.666667 178:0.55102 179:0.619048 180:0.422222 181:0.486111 182:0.480769 183:0.685185 184:0.614286 185:0.61039 186:0.666667 187:0.604167 188:0.372549 189:0.545455 190:0.568627 191:0.634921 192:0.428571 193:0.622642 194:0.461538 195:0.5625 196:0.77193 197:0.543478 198:0.6 199:0.941176 200:0.72093 201:0.365385 202:0.636364 203:0.666667 204:0.466667 205:0.703704 206:0.704545 207:0.488889 208:0.84 209:0.688889 210:0.591837 211:0.907407 212:0.666667 213:0.289474 214:0.424658 215:0.283582 216:0.275362 217:0.444444 218:0.884058 219:0.933333 220:0.927711 221:0.923077 222:0.927835 223:0.645833 224:0.5 225:0.553191 226:0.74 227:0.954545 228:0.555556 229:0.40678 230:0.295082 231:0.606557 232:0.745455 233:0.851064 234:0.565217 235:0.534483 236:0.387755 237:0.339623 238:0.793103 239:0.558824 240:0.575 241:0.756098 242:0.48 243:0.490196 244:0.96 245:0.468085 246:0.608696 247:0.519481 248:0.450704 249:0.325301 250:0.32 251:0.0540541 252:0.253968 253:0.618182 254:0.5 255:0.565217 256:0.714286 257:0.54902 258:0.55 259:0.636364 260:0.608696 261:0.478261 262:0.72093 263:0.641791 264:0.794118 265:0.378378 266:0.321429 267:0.492308 268:0.641509 269:0.375 270:0.654321 271:0.774194 272:0.837838 273:0.405405 274:0.529412 275:0.104478 276:0.540984 277:0.84375 278:0.606061 279:0.652174 280:0.909091 281:0.368421 282:0.862069 283:0.785714 284:0.603774 285:0.57971 286:0.688889 287:0.560976 288:0.8 
0.125 1:0.625 2:0.225 3:0.150943 4:0.433962 5:0.543478 6:0.783784 7:0.225806 8:0.0888889 10:0.28 11:0.571429 12:0.852273 13:0.294118 16:0.169492 17:0.0666667 18:0.793103 19:0.6 20:0.0789474 21:0.151515 22:0.413793 23:0.28169 24:0.782609 25:0.5 26:0.253968 27:0.26087 28:0.634615 29:0.537037 30:0.804878 31:0.676056 32:0.803922 33:0.625 34:0.853659 35:0.714286 36:0.878378 37:0.173913 38:0.0204082 39:0.145455 40:0.322034 41:0.40625 42:0.109091 43:0.177778 44:0.105263 45:0.0377358 46:0.183333 47:0.6 48:0.425532 49:0.775862 50:0.404255 52:0.0625 53:0.0172414 54:0.454545 55:0.645161 56:0.289474 57:0.265306 58:0.5 59:0.410256 60:0.595238 61:0.767857 62:0.62963 63:0.288889 64:0.513514 65:0.68 66:0.717949 67:0.967033 68:0.931818 69:0.839506 70:0.941176 71:0.983607 72:0.895522 73:0.163636 74:0.025974 75:0.1 76:0.238095 77:0.383562 78:0.180851 79:0.0888889 80:0.104167 81:0.145161 82:0.0645161 83:0.606557 84:0.308824 85:0.641509 86:0.714286 89:0.0784314 90:0.25 91:0.666667 92:0.55 93:0.142857 94:0.25 95:0.421053 96:0.333333 97:0.761905 98:1 99:0.351351 100:0.111111 101:0.488372 102:0.5 103:0.655556 104:0.552239 105:0.666667 106:0.691176 107:0.660714 108:0.686567 109:0.446429 110:0.0714286 111:0.153846 112:0.23913 113:0.403846 114:0.408451 115:0.179487 116:0.12 117:0.351351 119:0.206349 120:0.246377 121:0.516667 122:0.344828 124:0.0727273 125:0.0645161 126:0.104762 127:0.827586 128:0.679245 129:0.285714 130:0.411765 131:0.339623 132:0.114943 133:0.639344 134:0.396552 135:0.342857 136:0.3 137:0.571429 138:0.327586 139:0.838235 140:0.403846 141:0.575 142:0.705882 143:0.538462 144:0.52381 145:0.977778 146:0.2 147:0.170732 148:0.325581 149:0.351852 150:0.031746 151:0.910112 152:0.291667 153:0.386364 155:0.557692 156:0.219512 157:0.875 160:0.0625 161:0.108108 162:0.149425 163:0.928571 164:0.5 165:0.282051 166:0.354839 167:0.28 168:0.157895 169:0.959184 170:0.566038 171:0.583333 172:0.486486 173:0.666667 174:0.309091 175:0.980583 176:0.857143 177:0.684211 178:0.489796 179:0.547619 180:0.511111 181:0.416667 182:0.269231 183:0.185185 184:0.542857 185:0.480519 186:0.383333 187:0.375 188:0.352941 189:0.204545 190:0.176471 191:0.714286 192:0.380952 193:0.358491 194:0.288462 197:0.195652 198:0.422222 199:0.803922 200:0.767442 201:0.0961538 202:0.0909091 203:0.472222 204:0.311111 205:0.62963 206:0.681818 207:0.355556 208:0.44 209:0.688889 210:0.591837 211:0.833333 212:0.571429 213:0.315789 214:0.438356 215:0.343284 216:0.318841 217:0.375 218:0.797101 219:0.933333 220:0.855422 221:0.934066 222:0.958763 223:0.354167 224:0.386364 225:0.212766 226:0.44 227:0.848485 228:0.444444 229:0.220339 230:0.0983607 233:0.425532 234:0.434783 235:0.431034 236:0.244898 237:0.150943 238:0.448276 239:0.205882 240:0.3 241:0.658537 242:0.38 243:0.313725 244:0.56 245:0.553191 246:0.543478 247:0.519481 248:0.492958 249:0.313253 250:0.306667 251:0.189189 252:0.269841 253:0.563636 255:0.217391 256:0.428571 257:0.431373 258:0.733333 259:0.318182 260:0.391304 262:0.232558 263:0.537313 264:0.661765 265:0.27027 266:0.142857 268:0.0566038 269:0.160714 270:0.604938 271:0.983871 272:0.810811 273:0.27027 274:0.558824 275:0.164179 276:0.360656 277:0.953125 278:0.666667 279:0.478261 280:0.545455 281:0.631579 282:0.862069 283:0.842857 284:0.622642 285:0.449275 286:0.644444 287:0.756098 288:0.8 
0.125 1:0.541667 2:0.4 3:0.377358 4:0.679245 5:0.804348 6:0.77027 7:0.403226 8:0.266667 9:0.604651 10:0.58 11:0.650794 12:0.818182 13:0.264706 14:0.0333333 15:0.457627 16:0.644068 17:0.3 18:0.758621 19:0.653333 20:0.342105 21:0.424242 22:0.517241 23:0.15493 24:0.684783 25:0.439024 26:0.222222 27:0.326087 28:0.615385 29:0.444444 30:0.743902 31:0.873239 32:0.647059 33:0.59375 34:0.902439 35:0.595238 36:0.824324 37:0.456522 38:0.44898 39:0.581818 40:0.661017 41:0.671875 42:0.363636 43:0.377778 44:0.289474 45:0.45283 46:0.5 47:0.8 48:0.574468 49:0.551724 50:0.404255 51:0.358209 52:0.645833 53:0.431034 54:0.613636 55:0.548387 56:0.578947 57:0.326531 58:0.789474 59:0.564103 60:0.714286 61:0.571429 62:0.62963 63:0.311111 64:0.675676 65:0.46 66:0.615385 67:0.945055 68:0.909091 69:0.839506 70:0.870588 71:0.918033 72:0.850746 73:0.472727 74:0.298701 75:0.383333 76:0.428571 77:0.547945 78:0.287234 79:0.4 80:0.1875 81:0.403226 82:0.435484 83:0.721311 84:0.426471 85:0.45283 86:0.547619 87:0.305085 88:0.72 89:0.470588 90:0.352941 91:0.649123 92:0.75 93:0.285714 94:0.71875 95:0.447368 96:0.361111 97:0.666667 98:0.794872 99:0.162162 100:0.222222 101:0.418605 102:0.517857 103:0.6 104:0.746269 105:0.703704 106:0.75 107:0.696429 108:0.746269 109:0.642857 110:0.571429 111:0.365385 112:0.608696 113:0.538462 114:0.380282 115:0.487179 116:0.38 117:0.72973 118:0.586957 119:0.412698 120:0.26087 121:0.45 122:0.344828 123:0.264151 124:0.709091 125:0.532258 126:0.171429 127:0.827586 128:0.830189 129:0.6 130:0.617647 131:0.207547 132:0.091954 133:0.754098 134:0.465517 135:0.4 136:0.42 137:0.261905 138:0.224138 139:0.897059 140:0.519231 141:0.65 142:0.823529 143:0.410256 144:0.285714 145:0.9 146:0.622222 147:0.585366 148:0.72093 149:0.740741 150:0.238095 151:0.88764 152:0.541667 153:0.590909 154:0.575 155:0.903846 156:0.329268 157:0.84375 158:0.0677966 159:0.305085 160:0.59375 161:0.540541 162:0.206897 163:0.836735 164:0.553571 165:0.102564 166:0.516129 167:0.22 168:0.126316 169:0.806122 170:0.54717 171:0.541667 172:0.621622 173:0.529412 174:0.163636 175:0.883495 176:0.714286 177:0.631579 178:0.591837 179:0.47619 180:0.533333 181:0.444444 182:0.634615 183:0.62963 184:0.657143 185:0.636364 186:0.766667 187:0.625 188:0.490196 189:0.477273 190:0.509804 191:0.809524 192:0.52381 193:0.358491 194:0.307692 195:0.484375 196:0.719298 197:0.478261 198:0.577778 199:0.705882 200:0.651163 201:0.134615 202:0.545455 203:0.527778 204:0.333333 205:0.648148 206:0.75 207:0.333333 208:0.68 209:0.488889 210:0.489796 211:0.87037 212:0.603175 213:0.302632 214:0.383562 215:0.208955 216:0.202899 217:0.347222 218:0.753623 219:0.933333 220:0.915663 221:0.945055 222:0.886598 223:0.604167 224:0.454545 225:0.404255 226:0.7 227:0.954545 228:0.555556 229:0.271186 230:0.245902 231:0.52459 232:0.727273 233:0.744681 234:0.521739 235:0.362069 236:0.530612 237:0.320755 238:0.827586 239:0.588235 240:0.525 241:0.804878 242:0.64 243:0.45098 244:1 245:0.489362 246:0.652174 247:0.558442 248:0.492958 249:0.26506 250:0.306667 251:0.175676 252:0.349206 253:0.527273 254:0.5 255:0.630435 256:0.571429 257:0.72549 258:0.8 259:0.363636 260:0.5 261:0.543478 262:0.604651 263:0.701493 264:0.823529 265:0.0540541 266:0.160714 267:0.523077 268:0.698113 269:0.482143 270:0.666667 271:0.693548 272:0.756757 273:0.297297 274:0.588235 275:0.104478 276:0.47541 277:0.75 278:0.590909 279:0.5 280:0.606061 281:0.236842 282:0.896552 283:0.471429 284:0.735849 285:0.637681 286:0.8 287:0.439024 288:0.688889 
0.125 1:0.645833 2:0.425 3:0.433962 4:0.528302 5:0.717391 6:0.851351 7:0.387097 8:0.4 9:0.767442 10:0.88 11:0.746032 12:0.863636 13:0.220588 14:0.216667 15:0.338983 16:0.694915 17:0.3 18:0.781609 19:0.48 20:0.131579 21:0.272727 22:0.551724 23:0.169014 24:0.684783 25:0.329268 26:0.111111 27:0.369565 28:0.730769 29:0.240741 30:0.756098 31:0.535211 32:0.588235 33:0.59375 34:0.902439 35:0.642857 36:0.851351 37:0.413043 38:0.408163 39:0.454545 40:0.474576 41:0.59375 42:0.309091 43:0.333333 44:0.289474 45:0.45283 46:0.816667 47:0.86 48:0.553191 49:0.5 50:0.425532 51:0.313433 52:0.708333 53:0.413793 54:0.522727 55:0.483871 56:0.394737 57:0.387755 58:0.763158 59:0.435897 60:0.595238 61:0.446429 62:0.444444 63:0.266667 64:0.540541 65:0.24 66:0.589744 67:0.747253 68:0.840909 69:0.777778 70:0.929412 71:0.901639 72:0.835821 73:0.381818 74:0.311688 75:0.283333 76:0.365079 77:0.465753 78:0.265957 79:0.511111 80:0.4375 81:0.451613 82:0.725806 83:0.868852 84:0.397059 85:0.584906 86:0.619048 87:0.305085 88:0.72 89:0.588235 90:0.264706 91:0.649123 92:0.55 93:0.163265 94:0.625 95:0.5 96:0.416667 97:0.642857 98:0.564103 99:0.189189 100:0.259259 101:0.255814 102:0.464286 103:0.755556 104:0.820896 105:0.907407 106:0.720588 107:0.678571 108:0.791045 109:0.607143 110:0.619048 111:0.365385 112:0.434783 113:0.480769 114:0.366197 115:0.615385 116:0.52 117:0.918919 118:0.717391 119:0.571429 120:0.289855 121:0.55 122:0.534483 123:0.264151 124:0.454545 125:0.5 126:0.171429 127:0.724138 128:0.622642 129:0.342857 130:0.5 132:0.091954 133:0.786885 134:0.155172 135:0.0857143 136:0.42 137:0.0238095 138:0.224138 139:0.926471 140:0.269231 141:0.55 142:0.852941 143:0.384615 144:0.547619 145:0.944444 146:0.488889 147:0.536585 148:0.604651 149:0.666667 150:0.222222 151:0.831461 152:0.416667 153:0.727273 154:0.8 155:0.980769 156:0.317073 157:0.78125 158:0.0677966 159:0.322034 160:0.671875 161:0.594595 162:0.206897 163:0.785714 164:0.589286 165:0.307692 166:0.419355 167:0.28 168:0.115789 169:0.765306 170:0.584906 171:0.5625 172:0.648649 173:0.352941 174:0.0545455 175:0.84466 176:0.678571 177:0.526316 178:0.510204 179:0.428571 180:0.444444 181:0.402778 182:0.461538 183:0.444444 184:0.542857 185:0.662338 186:0.55 187:0.729167 188:0.627451 189:0.477273 190:0.54902 191:0.825397 192:0.428571 193:0.509434 194:0.307692 195:0.484375 196:0.859649 197:0.673913 198:0.488889 199:0.607843 200:0.418605 201:0.192308 202:0.515152 203:0.527778 204:0.377778 205:0.5 206:0.545455 207:0.444444 208:0.84 209:0.266667 210:0.346939 211:0.62963 212:0.444444 213:0.342105 214:0.438356 215:0.179104 216:0.26087 217:0.361111 218:0.826087 219:0.946667 220:0.903614 221:0.912088 222:0.969072 223:0.6875 224:0.772727 225:0.425532 226:0.84 227:1 228:0.587302 229:0.220339 230:0.360656 231:0.52459 232:0.890909 233:0.87234 234:0.478261 235:0.5 236:0.857143 237:0.301887 238:0.689655 239:0.617647 240:0.6 241:0.536585 242:0.56 243:0.27451 244:0.72 245:0.170213 246:0.608696 247:0.350649 248:0.267606 249:0.289157 250:0.32 251:0.121622 252:0.365079 253:0.527273 254:0.425 255:0.478261 256:0.591837 257:0.666667 258:0.566667 259:0.386364 260:0.630435 261:0.5 262:0.930233 263:0.776119 264:0.735294 265:0.0945946 266:0.178571 267:0.446154 268:0.773585 269:0.5 270:0.666667 271:0.467742 272:0.567568 273:0.297297 274:0.470588 275:0.0447761 276:0.47541 277:0.59375 278:0.469697 279:0.413043 280:0.636364 281:0.0263158 282:0.896552 283:0.628571 284:0.679245 285:0.565217 286:0.688889 287:0.463415 288:0.777778 
0.125 1:0.520833 2:0.25 3:0.45283 4:0.698113 5:0.73913 6:0.756757 7:0.306452 8:0.266667 9:0.465116 10:0.8 11:0.555556 12:0.875 13:0.573529 14:0.45 15:0.338983 16:0.508475 17:0.177778 18:0.83908 19:0.96 20:0.684211 21:0.393939 22:0.448276 23:0.507042 24:0.771739 25:0.95122 26:1 27:0.543478 28:0.692308 29:1 30:0.817073 31:0.71831 32:0.607843 33:0.578125 34:0.804878 35:0.547619 36:0.810811 37:0.478261 38:0.285714 39:0.363636 40:0.542373 41:0.65625 42:0.309091 43:0.355556 44:0.315789 45:0.433962 46:0.783333 47:0.9 48:0.468085 49:0.448276 50:0.361702 51:0.358209 52:0.645833 53:0.327586 54:0.386364 55:0.387097 56:0.105263 57:0.408163 58:0.684211 59:0.384615 60:0.52381 61:0.303571 62:0.148148 63:0.244444 64:0.594595 65:0.28 66:0.487179 67:0.802198 68:0.863636 69:0.938272 70:0.894118 71:0.95082 72:0.850746 73:0.290909 74:0.337662 75:0.366667 76:0.52381 77:0.534247 78:0.223404 79:0.377778 80:0.375 81:0.483871 82:0.725806 83:0.836066 84:0.367647 85:0.528302 86:0.666667 87:0.271186 88:0.64 89:0.431373 90:0.191176 91:0.491228 93:0.163265 94:0.46875 95:0.447368 96:0.333333 97:0.547619 98:0.282051 99:0.0540541 100:0.185185 101:0.139535 102:0.232143 103:0.555556 104:0.402985 105:0.388889 106:0.720588 107:0.535714 108:0.686567 109:0.696429 110:0.452381 111:0.403846 112:0.478261 113:0.480769 114:0.295775 115:0.615385 116:0.32 117:0.783784 118:0.782609 119:0.380952 120:0.202899 121:0.533333 122:0.758621 123:0.433962 124:0.636364 125:0.516129 126:0.114286 127:0.706897 128:0.735849 129:0.6 130:0.647059 131:0.358491 132:0.413793 133:0.967213 134:0.862069 135:0.371429 136:0.38 137:0.547619 138:0.551724 139:0.882353 140:0.711538 141:0.4 142:0.588235 143:0.333333 144:0.333333 145:0.9 146:0.488889 147:0.463415 148:0.627907 149:0.759259 150:0.222222 151:0.853933 152:0.5 153:0.636364 154:0.925 155:1 156:0.304878 157:0.84375 158:0.423729 159:0.338983 160:0.59375 161:0.445946 162:0.172414 163:0.877551 164:1 165:0.282051 166:0.258065 167:0.32 168:0.2 169:0.94898 170:0.943396 171:0.645833 172:0.540541 173:0.764706 174:0.490909 175:0.932039 176:1 177:0.596491 178:0.489796 179:0.47619 180:0.422222 181:0.388889 182:0.461538 183:0.481481 184:0.542857 185:0.519481 186:0.55 187:0.479167 188:0.45098 189:0.431818 190:0.627451 191:0.809524 192:0.412698 193:0.301887 194:0.384615 195:0.484375 196:0.77193 197:0.543478 198:0.4 199:0.54902 200:0.534884 201:0.173077 202:0.363636 203:0.277778 204:0.244444 205:0.481481 206:0.545455 207:0.2 208:0.68 209:0.466667 210:0.44898 211:0.685185 212:0.412698 213:0.131579 214:0.342466 215:0.19403 216:0.26087 217:0.347222 218:0.797101 219:0.96 220:0.963855 221:0.978022 222:0.948454 223:0.520833 224:0.409091 225:0.382979 226:0.88 227:1 228:0.492063 229:0.186441 230:0.196721 231:0.57377 232:0.854545 233:0.723404 234:0.304348 235:0.275862 237:0.320755 238:0.655172 239:0.264706 240:0.275 241:0.609756 242:0.46 243:0.45098 244:0.76 245:0.382979 246:0.434783 247:0.467532 248:0.521127 249:0.289157 250:0.306667 251:0.121622 252:0.174603 253:0.527273 254:0.375 255:0.521739 256:0.612245 257:0.607843 258:0.7 259:0.454545 260:0.586957 261:0.565217 262:0.953488 263:0.671642 264:0.632353 265:0.162162 266:0.428571 267:0.507692 268:0.773585 269:0.464286 270:0.604938 272:1 273:0.486486 274:0.382353 275:0.179104 276:0.540984 277:0.4375 278:0.409091 279:0.456522 280:0.515152 281:0.394737 282:0.948276 283:0.8 284:0.754717 285:0.536232 286:0.555556 287:0.487805 288:0.711111 
0.1160885460720916 1:0.520833 2:0.3 3:0.45283 4:0.566038 5:0.478261 6:0.743243 7:0.193548 8:0.333333 9:0.697674 10:0.36 11:0.365079 12:0.806818 13:0.397059 14:0.25 15:0.220339 16:0.118644 17:0.0777778 18:0.770115 19:0.533333 20:0.236842 21:0.484848 22:0.344828 24:0.663043 25:0.670732 26:0.428571 27:0.369565 28:0.596154 29:0.37037 30:0.695122 31:0.802817 32:0.72549 33:0.65625 34:0.853659 35:0.619048 36:0.878378 37:0.326087 38:0.265306 39:0.4 40:0.59322 41:0.53125 42:0.163636 43:0.177778 44:0.157895 45:0.528302 46:0.516667 47:0.78 48:0.489362 49:0.62069 50:0.404255 51:0.19403 52:0.208333 53:0.172414 54:0.590909 55:0.709677 56:0.236842 57:0.469388 58:0.763158 59:0.666667 60:0.666667 61:0.678571 62:0.703704 63:0.466667 64:0.648649 65:0.54 66:0.74359 67:0.89011 68:0.931818 69:0.851852 70:0.917647 71:0.868852 72:0.880597 73:0.290909 74:0.207792 75:0.383333 76:0.555556 77:0.493151 78:0.234043 79:0.177778 80:0.104167 81:0.580645 82:0.435484 83:0.655738 84:0.382353 85:0.603774 86:0.785714 87:0.220339 88:0.24 89:0.215686 90:0.338235 91:0.719298 92:0.525 93:0.285714 94:0.65625 95:0.631579 96:0.527778 97:1 98:0.820513 99:0.27027 100:0.518519 101:0.418605 102:0.357143 103:0.755556 104:0.80597 105:0.740741 106:0.75 107:0.767857 108:0.597015 109:0.464286 110:0.380952 111:0.442308 112:0.652174 113:0.307692 114:0.295775 115:0.307692 116:0.22 117:0.648649 118:0.565217 119:0.15873 120:0.188406 121:0.45 122:0.431034 123:0.169811 124:0.2 125:0.16129 126:0.152381 127:0.706897 128:0.45283 129:0.428571 130:0.529412 131:0.188679 132:0.0804598 133:0.819672 134:0.586207 135:0.457143 136:0.42 137:0.357143 138:0.206897 139:0.926471 140:0.903846 141:0.65 142:0.676471 143:0.538462 144:0.5 145:0.955556 146:0.377778 147:0.512195 148:0.72093 149:0.5 150:0.142857 151:0.88764 152:0.395833 153:0.795455 154:0.4 155:0.615385 156:0.280488 157:0.875 158:0.220339 159:0.322034 160:0.125 161:0.0405405 162:0.172414 163:0.887755 164:0.482143 165:0.25641 166:0.419355 167:0.22 168:0.126316 169:0.806122 170:0.54717 171:0.5625 172:0.702703 173:0.411765 175:0.805825 176:0.714286 177:0.508772 178:0.612245 179:0.428571 180:0.377778 181:0.388889 182:0.673077 183:0.703704 184:0.714286 185:0.649351 186:0.9 187:0.270833 188:0.176471 189:0.431818 190:0.490196 191:0.666667 192:0.396825 193:0.433962 194:0.25 195:0.484375 196:0.315789 197:0.217391 198:0.644444 199:0.647059 200:0.0232558 201:0.269231 202:0.424242 203:0.416667 204:0.355556 205:0.740741 206:0.568182 207:0.444444 208:0.72 209:0.555556 210:0.469388 211:0.907407 212:0.777778 213:0.328947 214:0.424658 215:0.283582 216:0.289855 217:0.402778 218:0.753623 219:0.866667 220:0.891566 221:0.912088 222:0.793814 223:0.395833 224:0.181818 225:0.361702 226:0.72 227:0.909091 228:0.47619 229:0.338983 230:0.557377 231:0.42623 232:0.327273 233:0.531915 234:0.456522 235:0.706897 236:0.918367 237:0.415094 238:0.827586 239:0.764706 240:0.575 241:0.780488 242:0.56 243:0.529412 244:0.76 245:0.510638 246:0.608696 247:0.61039 248:0.633803 249:0.325301 250:0.293333 251:0.243243 252:0.269841 253:0.509091 254:0.375 255:0.695652 256:0.755102 257:0.470588 258:0.75 259:0.318182 260:0.521739 261:0.391304 262:0.581395 263:0.507463 264:0.764706 265:0.256757 266:0.25 267:0.261538 268:0.113208 269:0.142857 270:0.654321 271:0.612903 272:0.405405 273:0.162162 274:0.5 275:0.283582 276:0.52459 277:0.65625 278:0.484848 279:0.565217 280:0.787879 281:0.0789474 282:0.896552 283:0.771429 284:0.622642 285:0.623188 286:0.666667 287:0.317073 288:0.733333 
